{"learner":{"attributes":{"scikit_learn":"{\"_estimator_type\": \"regressor\"}"},"feature_names":[],"feature_types":[],"gradient_booster":{"model":{"gbtree_model_param":{"num_parallel_tree":"1","num_trees":"384"},"iteration_indptr":[0,1,2,3,4,5,6,7,8,9,10,11,12,13,14,15,16,17,18,19,20,21,22,23,24,25,26,27,28,29,30,31,32,33,34,35,36,37,38,39,40,41,42,43,44,45,46,47,48,49,50,51,52,53,54,55,56,57,58,59,60,61,62,63,64,65,66,67,68,69,70,71,72,73,74,75,76,77,78,79,80,81,82,83,84,85,86,87,88,89,90,91,92,93,94,95,96,97,98,99,100,101,102,103,104,105,106,107,108,109,110,111,112,113,114,115,116,117,118,119,120,121,122,123,124,125,126,127,128,129,130,131,132,133,134,135,136,137,138,139,140,141,142,143,144,145,146,147,148,149,150,151,152,153,154,155,156,157,158,159,160,161,162,163,164,165,166,167,168,169,170,171,172,173,174,175,176,177,178,179,180,181,182,183,184,185,186,187,188,189,190,191,192,193,194,195,196,197,198,199,200,201,202,203,204,205,206,207,208,209,210,211,212,213,214,215,216,217,218,219,220,221,222,223,224,225,226,227,228,229,230,231,232,233,234,235,236,237,238,239,240,241,242,243,244,245,246,247,248,249,250,251,252,253,254,255,256,257,258,259,260,261,262,263,264,265,266,267,268,269,270,271,272,273,274,275,276,277,278,279,280,281,282,283,284,285,286,287,288,289,290,291,292,293,294,295,296,297,298,299,300,301,302,303,304,305,306,307,308,309,310,311,312,313,314,315,316,317,318,319,320,321,322,323,324,325,326,327,328,329,330,331,332,333,334,335,336,337,338,339,340,341,342,343,344,345,346,347,348,349,350,351,352,353,354,355,356,357,358,359,360,361,362,363,364,365,366,367,368,369,370,371,372,373,374,375,376,377,378,379,380,381,382,383,384],"tree_info":[0,0,0,0,0,0,0,0,0,0,0,0,0,0,0,0,0,0,0,0,0,0,0,0,0,0,0,0,0,0,0,0,0,0,0,0,0,0,0,0,0,0,0,0,0,0,0,0,0,0,0,0,0,0,0,0,0,0,0,0,0,0,0,0,0,0,0,0,0,0,0,0,0,0,0,0,0,0,0,0,0,0,0,0,0,0,0,0,0,0,0,0,0,0,0,0,0,0,0,0,0,0,0,0,0,0,0,0,0,0,0,0,0,0,0,0,0,0,0,0,0,0,0,0,0,0,0,0,0,0,0,0,0,0,0,0,0,0,0,0,0,0,0,0,0,0,0,0,0,0,0,0,0,0,0,0,0,0,0,0,0,0,0,0,0,0,0,0,0,0,0,0,0,0,0,0,0,0,0,0,0,0,0,0,0,0,0,0,0,0,0,0,0,0,0,0,0,0,0,0,0,0,0,0,0,0,0,0,0,0,0,0,0,0,0,0,0,0,0,0,0,0,0,0,0,0,0,0,0,0,0,0,0,0,0,0,0,0,0,0,0,0,0,0,0,0,0,0,0,0,0,0,0,0,0,0,0,0,0,0,0,0,0,0,0,0,0,0,0,0,0,0,0,0,0,0,0,0,0,0,0,0,0,0,0,0,0,0,0,0,0,0,0,0,0,0,0,0,0,0,0,0,0,0,0,0,0,0,0,0,0,0,0,0,0,0,0,0,0,0,0,0,0,0,0,0,0,0,0,0,0,0,0,0,0,0,0,0,0,0,0,0,0,0,0,0,0,0,0,0,0,0,0,0,0,0,0,0,0,0,0,0,0,0,0,0,0,0,0,0,0,0,0,0,0,0,0,0,0,0,0,0,0,0],"trees":[{"base_weights":[8.907925E-9,1.1929046E-1,-1.5809911E-1,3.27824E-2,1.9468887E-1,-2.1742864E-1,4.4727802E-2,-1.0525131E-1,5.9064858E-2,2.495382E-1,1.4544353E-1,-2.3648088E-1,5.1126145E-2,-4.1694988E-2,1.7695649E-1,-2.0222014E-2,2.303396E-3,1.346263E-2,2.4352216E-3,1.6730621E-2,2.647501E-2,-1.3303268E-2,1.564856E-2,-1.1048304E-2,-2.6340688E-2,-1.2694483E-2,1.5346681E-2,-1.4819795E-2,2.3925703E-3,-1.7881E-2,2.0144435E-2],"categories":[],"categories_nodes":[],"categories_segments":[],"categories_sizes":[],"default_left":[0,0,0,0,0,0,0,0,0,0,0,0,0,0,0,0,0,0,0,0,0,0,0,0,0,0,0,0,0,0,0],"id":0,"left_children":[1,3,5,7,9,11,13,15,17,19,21,23,25,27,29,-1,-1,-1,-1,-1,-1,-1,-1,-1,-1,-1,-1,-1,-1,-1,-1],"loss_changes":[5.6616867E1,1.1153734E1,1.55451355E1,2.9012535E0,2.4324875E0,5.123543E0,3.355657E0,1.5969357E0,1.7567127E0,4.9484634E-1,1.5090952E0,3.1362114E0,1.240483E0,1.2475517E0,1.0466068E0,0E0,0E0,0E0,0E0,0E0,0E0,0E0,0E0,0E0,0E0,0E0,0E0,0E0,0E0,0E0,0E0],"parents":[2147483647,0,0,1,1,2,2,3,3,4,4,5,5,6,6,7,7,8,8,9,9,10,10,11,11,12,12,13,13,14,14],"right_children":[2,4,6,8,10,12,14,16,18,20,22,24,26,28,30,-1,-1,-1,-1,-1,-1,-1,-1,-1,-1,-1,-1,-1,-1,-1,-1],"split_conditions":[1.9837525E-2,3.30365E-3,2.0839514E-2,-1.5987942E-2,-8.913723E-2,3.5602555E-2,-1.3752134E-2,4.1977327E-2,-1.3068342E-2,8.103285E-2,-1.2445006E-1,-1.8799456E-3,-2.1180814E-2,-2.338124E-2,-7.0473164E-2,-2.0222014E-2,2.303396E-3,1.346263E-2,2.4352216E-3,1.6730621E-2,2.647501E-2,-1.3303268E-2,1.564856E-2,-1.1048304E-2,-2.6340688E-2,-1.2694483E-2,1.5346681E-2,-1.4819795E-2,2.3925703E-3,-1.7881E-2,2.0144435E-2],"split_indices":[279,345,78,78,146,362,262,307,198,260,230,46,248,303,345,0,0,0,0,0,0,0,0,0,0,0,0,0,0,0,0],"split_type":[0,0,0,0,0,0,0,0,0,0,0,0,0,0,0,0,0,0,0,0,0,0,0,0,0,0,0,0,0,0,0],"sum_hessian":[3E3,1.71E3,1.29E3,7.97E2,9.13E2,9.98E2,2.92E2,1.27E2,6.7E2,4.3E2,4.83E2,9.32E2,6.6E1,1.77E2,1.15E2,7.2E1,5.5E1,2.1E2,4.6E2,6.9E1,3.61E2,1.8E1,4.65E2,1.65E2,7.67E2,2.4E1,4.2E1,6.7E1,1.1E2,7E0,1.08E2],"tree_param":{"num_deleted":"0","num_feature":"384","num_nodes":"31","size_leaf_vector":"1"}},{"base_weights":[-4.4761083E-7,1.0738686E-1,-1.4232397E-1,2.9501615E-2,1.7526983E-1,-1.9572054E-1,4.022034E-2,-9.486617E-2,5.3182054E-2,2.2360009E-1,1.2973654E-1,-5.5387773E-2,-2.2566365E-1,-3.5457134E-2,1.6283712E-1,-1.8227514E-2,2.07717E-3,3.331257E-3,1.7184498E-2,1.3888995E-2,2.3679806E-2,-1.2042957E-2,1.398979E-2,-1.229836E-2,2.1277871E-2,-2.5177518E-2,-1.5017911E-2,-1.1362916E-2,3.8934008E-3,1.8647524E-2,-1.6776776E-2],"categories":[],"categories_nodes":[],"categories_segments":[],"categories_sizes":[],"default_left":[0,0,0,0,0,0,0,0,0,0,0,0,0,0,0,0,0,0,0,0,0,0,0,0,0,0,0,0,0,0,0],"id":1,"left_children":[1,3,5,7,9,11,13,15,17,19,21,23,25,27,29,-1,-1,-1,-1,-1,-1,-1,-1,-1,-1,-1,-1,-1,-1,-1,-1],"loss_changes":[4.5881786E1,9.041027E0,1.259156E1,2.355222E0,1.9823723E0,4.185299E0,2.724617E0,1.2975829E0,1.5763396E0,4.6126747E-1,1.2192278E0,3.2346349E0,1.5843315E0,1.0628097E0,9.0655065E-1,0E0,0E0,0E0,0E0,0E0,0E0,0E0,0E0,0E0,0E0,0E0,0E0,0E0,0E0,0E0,0E0],"parents":[2147483647,0,0,1,1,2,2,3,3,4,4,5,5,6,6,7,7,8,8,9,9,10,10,11,11,12,12,13,13,14,14],"right_children":[2,4,6,8,10,12,14,16,18,20,22,24,26,28,30,-1,-1,-1,-1,-1,-1,-1,-1,-1,-1,-1,-1,-1,-1,-1,-1],"split_conditions":[1.9837525E-2,3.30365E-3,2.0839514E-2,-1.5987942E-2,-8.730736E-2,-4.5994306E-3,-1.2628637E-2,4.1977327E-2,7.701016E-2,-6.944288E-2,-1.2445006E-1,-1.0739766E-2,-5.305519E-2,3.4889918E-2,5.88648E-2,-1.8227514E-2,2.07717E-3,3.331257E-3,1.7184498E-2,1.3888995E-2,2.3679806E-2,-1.2042957E-2,1.398979E-2,-1.229836E-2,2.1277871E-2,-2.5177518E-2,-1.5017911E-2,-1.1362916E-2,3.8934008E-3,1.8647524E-2,-1.6776776E-2],"split_indices":[279,345,78,78,146,46,262,307,271,263,230,167,118,364,46,0,0,0,0,0,0,0,0,0,0,0,0,0,0,0,0],"split_type":[0,0,0,0,0,0,0,0,0,0,0,0,0,0,0,0,0,0,0,0,0,0,0,0,0,0,0,0,0,0,0],"sum_hessian":[3E3,1.71E3,1.29E3,7.97E2,9.13E2,9.98E2,2.92E2,1.27E2,6.7E2,4.41E2,4.72E2,1.76E2,8.22E2,1.81E2,1.11E2,7.2E1,5.5E1,5.75E2,9.5E1,6.1E1,3.8E2,1.8E1,4.54E2,1.41E2,3.5E1,6.09E2,2.13E2,8.8E1,9.3E1,1.04E2,7E0],"tree_param":{"num_deleted":"0","num_feature":"384","num_nodes":"31","size_leaf_vector":"1"}},{"base_weights":[1.9501654E-6,9.6673824E-2,-1.2812011E-1,2.2477904E-2,1.5455568E-1,-1.7617974E-1,3.6179192E-2,-3.4468267E-2,6.992452E-2,7.3071E-2,1.8218355E-1,-1.9276914E-1,5.7463367E-2,-3.4095787E-2,1.4370304E-1,-1.4202501E-2,4.508446E-4,8.4503583E-4,1.0803912E-2,9.019249E-3,-2.3941945E-2,2.2536634E-2,1.5039657E-2,-5.994995E-3,-2.1063164E-2,-1.5381134E-2,1.2676154E-2,8.8426063E-4,-1.611991E-2,-4.321018E-3,1.830934E-2],"categories":[],"categories_nodes":[],"categories_segments":[],"categories_sizes":[],"default_left":[0,0,0,0,0,0,0,0,0,0,0,0,0,0,0,0,0,0,0,0,0,0,0,0,0,0,0,0,0,0,0],"id":2,"left_children":[1,3,5,7,9,11,13,15,17,19,21,23,25,27,29,-1,-1,-1,-1,-1,-1,-1,-1,-1,-1,-1,-1,-1,-1,-1,-1],"loss_changes":[3.7182167E1,7.3445816E0,1.0200323E1,2.0315392E0,2.150137E0,3.8831997E0,2.2188768E0,1.4343755E0,9.597428E-1,1.332417E0,9.502945E-1,2.200901E0,1.0004411E0,9.728803E-1,8.619709E-1,0E0,0E0,0E0,0E0,0E0,0E0,0E0,0E0,0E0,0E0,0E0,0E0,0E0,0E0,0E0,0E0],"parents":[2147483647,0,0,1,1,2,2,3,3,4,4,5,5,6,6,7,7,8,8,9,9,10,10,11,11,12,12,13,13,14,14],"right_children":[2,4,6,8,10,12,14,16,18,20,22,24,26,28,30,-1,-1,-1,-1,-1,-1,-1,-1,-1,-1,-1,-1,-1,-1,-1,-1],"split_conditions":[1.9837525E-2,-1.8157453E-3,2.0839514E-2,3.2487836E-2,3.544682E-2,3.5602555E-2,-1.3752134E-2,-7.867087E-2,-2.8182574E-2,9.7508736E-2,-3.897317E-2,-2.8267587E-2,-8.079786E-2,5.982188E-2,-3.9017607E-2,-1.4202501E-2,4.508446E-4,8.4503583E-4,1.0803912E-2,9.019249E-3,-2.3941945E-2,2.2536634E-2,1.5039657E-2,-5.994995E-3,-2.1063164E-2,-1.5381134E-2,1.2676154E-2,8.8426063E-4,-1.611991E-2,-4.321018E-3,1.830934E-2],"split_indices":[279,345,78,3,271,362,262,230,262,60,198,272,118,51,345,0,0,0,0,0,0,0,0,0,0,0,0,0,0,0,0],"split_type":[0,0,0,0,0,0,0,0,0,0,0,0,0,0,0,0,0,0,0,0,0,0,0,0,0,0,0,0,0,0,0],"sum_hessian":[3E3,1.71E3,1.29E3,7.5E2,9.6E2,9.98E2,2.92E2,3.41E2,4.09E2,2.44E2,7.16E2,9.32E2,6.6E1,1.77E2,1.15E2,9E1,2.51E2,1.57E2,2.52E2,2.32E2,1.2E1,3.01E2,4.15E2,1.11E2,8.21E2,1.6E1,5E1,1.33E2,4.4E1,2E1,9.5E1],"tree_param":{"num_deleted":"0","num_feature":"384","num_nodes":"31","size_leaf_vector":"1"}},{"base_weights":[-1.7324276E-6,7.581604E-2,-1.324227E-1,1.5586284E-1,2.0734567E-2,-1.982217E-2,-1.8025576E-1,1.7537393E-1,3.704062E-2,-3.4311358E-2,8.769706E-2,1.0938668E-1,-1.0896734E-1,-1.1425468E-1,-2.1882729E-1,6.963393E-3,1.8803105E-2,1.9323347E-2,2.6830402E-4,-1.1933322E-2,1.6921103E-3,5.819036E-3,1.6944764E-2,1.4203535E-2,-2.3437774E-2,1.7066745E-2,-1.3678915E-2,-2.0185469E-2,-3.6276684E-3,-2.2805898E-2,-6.066753E-3],"categories":[],"categories_nodes":[],"categories_segments":[],"categories_sizes":[],"default_left":[0,0,0,0,0,0,0,0,0,0,0,0,0,0,0,0,0,0,0,0,0,0,0,0,0,0,0,0,0,0,0],"id":3,"left_children":[1,3,5,7,9,11,13,15,17,19,21,23,25,27,29,-1,-1,-1,-1,-1,-1,-1,-1,-1,-1,-1,-1,-1,-1,-1,-1],"loss_changes":[3.0139668E1,8.413732E0,5.883356E0,1.7971802E0,4.175575E0,3.7784185E0,1.927599E0,8.8093185E-1,5.951528E-1,2.7113762E0,1.2227685E0,1.5372324E0,1.5326548E0,1.9394767E0,6.9138527E-1,0E0,0E0,0E0,0E0,0E0,0E0,0E0,0E0,0E0,0E0,0E0,0E0,0E0,0E0,0E0,0E0],"parents":[2147483647,0,0,1,1,2,2,3,3,4,4,5,5,6,6,7,7,8,8,9,9,10,10,11,11,12,12,13,13,14,14],"right_children":[2,4,6,8,10,12,14,16,18,20,22,24,26,28,30,-1,-1,-1,-1,-1,-1,-1,-1,-1,-1,-1,-1,-1,-1,-1,-1],"split_conditions":[2.9621452E-2,-7.4240886E-2,9.282843E-3,5.1923156E-2,-1.4563705E-2,1.4987528E-2,-6.5575786E-2,-3.240514E-2,-1.3992608E-2,3.7369733E-3,5.3298164E-2,1.19554356E-1,-4.9247913E-2,-7.471039E-2,5.1866785E-2,6.963393E-3,1.8803105E-2,1.9323347E-2,2.6830402E-4,-1.1933322E-2,1.6921103E-3,5.819036E-3,1.6944764E-2,1.4203535E-2,-2.3437774E-2,1.7066745E-2,-1.3678915E-2,-2.0185469E-2,-3.6276684E-3,-2.2805898E-2,-6.066753E-3],"split_indices":[279,146,46,292,248,102,24,262,172,78,200,189,129,54,37,0,0,0,0,0,0,0,0,0,0,0,0,0,0,0,0],"split_type":[0,0,0,0,0,0,0,0,0,0,0,0,0,0,0,0,0,0,0,0,0,0,0,0,0,0,0,0,0,0,0],"sum_hessian":[3E3,1.908E3,1.092E3,7.77E2,1.131E3,3.26E2,7.66E2,6.67E2,1.1E2,6.21E2,5.1E2,1.33E2,1.93E2,2.84E2,4.82E2,7.2E1,5.95E2,1.9E1,9.1E1,2.33E2,3.88E2,3.76E2,1.34E2,1.22E2,1.1E1,1.7E1,1.76E2,1.33E2,1.51E2,4.55E2,2.7E1],"tree_param":{"num_deleted":"0","num_feature":"384","num_nodes":"31","size_leaf_vector":"1"}},{"base_weights":[-1.7780496E-6,8.545534E-2,-9.674798E-2,2.3336722E-2,1.3117304E-1,1.0114522E-2,-1.5099095E-1,-1.2899972E-1,3.621751E-2,1.6633187E-1,9.070918E-2,-4.289063E-2,1.2751706E-1,-2.2721665E-2,-1.7569841E-1,-1.9831924E-2,4.3696575E-3,1.7471331E-3,1.200932E-2,-2.3588067E-2,1.6929394E-2,2.5276728E-3,1.240276E-2,-9.936041E-3,4.8428876E-3,1.3182038E-3,1.96969E-2,8.436242E-5,-1.9819902E-2,-1.8601619E-2,3.7357807E-3],"categories":[],"categories_nodes":[],"categories_segments":[],"categories_sizes":[],"default_left":[0,0,0,0,0,0,0,0,0,0,0,0,0,0,0,0,0,0,0,0,0,0,0,0,0,0,0,0,0,0,0],"id":4,"left_children":[1,3,5,7,9,11,13,15,17,19,21,23,25,27,29,-1,-1,-1,-1,-1,-1,-1,-1,-1,-1,-1,-1,-1,-1,-1,-1],"loss_changes":[2.4819489E1,4.5237722E0,8.163054E0,1.3330908E0,1.2909155E0,2.9613655E0,2.956049E0,6.4314055E-1,9.8061985E-1,6.237068E-1,9.321301E-1,1.6962401E0,1.1726403E0,6.287138E-1,1.7281933E0,0E0,0E0,0E0,0E0,0E0,0E0,0E0,0E0,0E0,0E0,0E0,0E0,0E0,0E0,0E0,0E0],"parents":[2147483647,0,0,1,1,2,2,3,3,4,4,5,5,6,6,7,7,8,8,9,9,10,10,11,11,12,12,13,13,14,14],"right_children":[2,4,6,8,10,12,14,16,18,20,22,24,26,28,30,-1,-1,-1,-1,-1,-1,-1,-1,-1,-1,-1,-1,-1,-1,-1,-1],"split_conditions":[1.3679191E-2,-8.005601E-4,-5.4857684E-3,-3.1173691E-2,-6.4924452E-3,-1.3773361E-2,-3.6755476E-2,7.558159E-2,8.421059E-3,-8.7451145E-2,6.7511476E-3,1.1001032E-2,-2.486225E-2,5.1791176E-2,8.074427E-2,-1.9831924E-2,4.3696575E-3,1.7471331E-3,1.200932E-2,-2.3588067E-2,1.6929394E-2,2.5276728E-3,1.240276E-2,-9.936041E-3,4.8428876E-3,1.3182038E-3,1.96969E-2,8.436242E-5,-1.9819902E-2,-1.8601619E-2,3.7357807E-3],"split_indices":[279,345,129,78,28,95,272,199,262,232,27,362,345,46,183,0,0,0,0,0,0,0,0,0,0,0,0,0,0,0,0],"split_type":[0,0,0,0,0,0,0,0,0,0,0,0,0,0,0,0,0,0,0,0,0,0,0,0,0,0,0,0,0,0,0],"sum_hessian":[3E3,1.593E3,1.407E3,6.76E2,9.17E2,4.74E2,9.33E2,5.2E1,6.24E2,4.89E2,4.28E2,3.27E2,1.47E2,1.51E2,7.82E2,3.7E1,1.5E1,5.11E2,1.13E2,3E0,4.86E2,1.45E2,2.83E2,2.02E2,1.25E2,5.6E1,9.1E1,1.34E2,1.7E1,7.46E2,3.6E1],"tree_param":{"num_deleted":"0","num_feature":"384","num_nodes":"31","size_leaf_vector":"1"}},{"base_weights":[-5.6346103E-6,8.261691E-2,-8.1317574E-2,3.505344E-2,1.285633E-1,-1.2278103E-1,4.7102727E-2,-6.831119E-3,7.483966E-2,-1.0889168E-1,1.344944E-1,-1.5096436E-1,-1.9819854E-2,-3.6846742E-2,9.662171E-2,1.2827082E-6,-2.4500173E-2,1.7229656E-2,5.5789943E-3,-4.8406646E-4,-2.5135675E-2,1.759233E-2,1.0734449E-2,-1.5474689E-2,2.8918518E-2,-8.411784E-3,9.731079E-3,-8.083999E-3,1.1140715E-2,4.10336E-3,1.7986152E-2],"categories":[],"categories_nodes":[],"categories_segments":[],"categories_sizes":[],"default_left":[0,0,0,0,0,0,0,0,0,0,0,0,0,0,0,0,0,0,0,0,0,0,0,0,0,0,0,0,0,0,0],"id":5,"left_children":[1,3,5,7,9,11,13,15,17,19,21,23,25,27,29,-1,-1,-1,-1,-1,-1,-1,-1,-1,-1,-1,-1,-1,-1,-1,-1],"loss_changes":[2.0168037E1,3.2495089E0,8.06213E0,1.2220031E0,1.08078E0,3.3166542E0,1.5416844E0,5.835528E-1,6.884415E-1,2.8043228E-1,8.12335E-1,1.5398102E0,1.8684078E0,9.090656E-1,1.0707438E0,0E0,0E0,0E0,0E0,0E0,0E0,0E0,0E0,0E0,0E0,0E0,0E0,0E0,0E0,0E0,0E0],"parents":[2147483647,0,0,1,1,2,2,3,3,4,4,5,5,6,6,7,7,8,8,9,9,10,10,11,11,12,12,13,13,14,14],"right_children":[2,4,6,8,10,12,14,16,18,20,22,24,26,28,30,-1,-1,-1,-1,-1,-1,-1,-1,-1,-1,-1,-1,-1,-1,-1,-1],"split_conditions":[7.797396E-3,4.823512E-2,2.4455033E-2,-3.512661E-3,-5.7674374E-2,9.651753E-3,-8.999667E-3,5.6857508E-2,-4.4635426E-2,3.3399392E-2,-4.039599E-2,1.1579294E-1,-3.9163474E-2,5.375735E-2,-1.8683696E-2,1.2827082E-6,-2.4500173E-2,1.7229656E-2,5.5789943E-3,-4.8406646E-4,-2.5135675E-2,1.759233E-2,1.0734449E-2,-1.5474689E-2,2.8918518E-2,-8.411784E-3,9.731079E-3,-8.083999E-3,1.1140715E-2,4.10336E-3,1.7986152E-2],"split_indices":[279,271,78,27,262,362,303,202,266,87,198,288,54,200,43,0,0,0,0,0,0,0,0,0,0,0,0,0,0,0,0],"split_type":[0,0,0,0,0,0,0,0,0,0,0,0,0,0,0,0,0,0,0,0,0,0,0,0,0,0,0,0,0,0,0],"sum_hessian":[3E3,1.488E3,1.512E3,7.32E2,7.56E2,1.143E3,3.69E2,3.57E2,3.75E2,1.8E1,7.38E2,8.97E2,2.46E2,1.37E2,2.32E2,3.48E2,9E0,6E1,3.15E2,1.1E1,7E0,2.9E2,4.48E2,8.9E2,7E0,1.59E2,8.7E1,1.06E2,3.1E1,1.4E2,9.2E1],"tree_param":{"num_deleted":"0","num_feature":"384","num_nodes":"31","size_leaf_vector":"1"}},{"base_weights":[8.562815E-6,6.304614E-2,-9.05568E-2,1.2567824E-1,1.771667E-2,1.719475E-2,-1.2525922E-1,1.49675E-1,7.284055E-2,-4.115849E-2,6.49095E-2,1.9139972E-1,-1.8269986E-2,-1.7334208E-2,-1.4676636E-1,2.4233334E-2,1.3724908E-2,1.0692251E-2,-8.3882995E-5,-1.0277419E-2,1.5731097E-3,8.946714E-4,9.599251E-3,2.3516817E-2,2.9554972E-3,2.187301E-2,-3.2134403E-3,-4.4300184E-3,8.072901E-3,-4.0014475E-3,-1.6247563E-2],"categories":[],"categories_nodes":[],"categories_segments":[],"categories_sizes":[],"default_left":[0,0,0,0,0,0,0,0,0,0,0,0,0,0,0,0,0,0,0,0,0,0,0,0,0,0,0,0,0,0,0],"id":6,"left_children":[1,3,5,7,9,11,13,15,17,19,21,23,25,27,29,-1,-1,-1,-1,-1,-1,-1,-1,-1,-1,-1,-1,-1,-1,-1,-1],"loss_changes":[1.7138483E1,5.022946E0,4.608897E0,9.311714E-1,2.858955E0,1.863115E0,2.160777E0,5.5393696E-1,5.876961E-1,1.6070404E0,9.9239063E-1,3.5431802E-1,8.3178157E-1,4.1609803E-1,1.2965221E0,0E0,0E0,0E0,0E0,0E0,0E0,0E0,0E0,0E0,0E0,0E0,0E0,0E0,0E0,0E0,0E0],"parents":[2147483647,0,0,1,1,2,2,3,3,4,4,5,5,6,6,7,7,8,8,9,9,10,10,11,11,12,12,13,13,14,14],"right_children":[2,4,6,8,10,12,14,16,18,20,22,24,26,28,30,-1,-1,-1,-1,-1,-1,-1,-1,-1,-1,-1,-1,-1,-1,-1,-1],"split_conditions":[-2.415156E-3,-7.501793E-2,8.75248E-3,-3.089612E-3,-2.8129112E-2,-4.677798E-2,-3.6755476E-2,-4.611646E-2,1.3912673E-2,4.666327E-3,1.2577052E-2,3.2910157E-2,-1.08451836E-1,-6.458308E-3,-2.083331E-2,2.4233334E-2,1.3724908E-2,1.0692251E-2,-8.3882995E-5,-1.0277419E-2,1.5731097E-3,8.946714E-4,9.599251E-3,2.3516817E-2,2.9554972E-3,2.187301E-2,-3.2134403E-3,-4.4300184E-3,8.072901E-3,-4.0014475E-3,-1.6247563E-2],"split_indices":[129,146,279,198,248,198,272,2,315,78,200,351,146,345,74,0,0,0,0,0,0,0,0,0,0,0,0,0,0,0,0],"split_type":[0,0,0,0,0,0,0,0,0,0,0,0,0,0,0,0,0,0,0,0,0,0,0,0,0,0,0,0,0,0,0],"sum_hessian":[3E3,1.769E3,1.231E3,7.42E2,1.027E3,3E2,9.31E2,5.09E2,2.33E2,4.57E2,5.7E2,5E1,2.5E2,1.55E2,7.76E2,5.8E1,4.51E2,1.59E2,7.4E1,2.19E2,2.38E2,2.04E2,3.66E2,3.9E1,1.1E1,1.3E1,2.37E2,1.22E2,3.3E1,1E2,6.76E2],"tree_param":{"num_deleted":"0","num_feature":"384","num_nodes":"31","size_leaf_vector":"1"}},{"base_weights":[3.3991626E-5,-9.272013E-2,5.0293654E-2,-1.1114498E-1,8.632339E-2,-1.401297E-2,8.9817055E-2,-1.445124E-1,-4.581354E-2,-1.0618942E-1,1.6373956E-1,3.517061E-2,-5.5698514E-2,1.2181944E-1,5.0649043E-2,3.5867293E-3,-1.5045606E-2,2.2523997E-3,-1.329461E-2,-1.6466236E-2,2.0741314E-2,1.9010833E-2,-6.767796E-3,4.345658E-4,8.516846E-3,-2.5877443E-3,-1.2081549E-2,7.5352886E-3,1.4749366E-2,1.0561406E-3,9.281467E-3],"categories":[],"categories_nodes":[],"categories_segments":[],"categories_sizes":[],"default_left":[0,0,0,0,0,0,0,0,0,0,0,0,0,0,0,0,0,0,0,0,0,0,0,0,0,0,0,0,0,0,0],"id":7,"left_children":[1,3,5,7,9,11,13,15,17,19,21,23,25,27,29,-1,-1,-1,-1,-1,-1,-1,-1,-1,-1,-1,-1,-1,-1,-1,-1],"loss_changes":[1.3994696E1,3.4898834E0,4.9497848E0,2.0795841E0,1.4928442E0,1.5232403E0,1.505516E0,6.8404484E-1,1.9381821E0,5.6593376E-1,4.4612217E-1,5.251727E-1,7.775004E-1,7.798395E-1,9.1855407E-1,0E0,0E0,0E0,0E0,0E0,0E0,0E0,0E0,0E0,0E0,0E0,0E0,0E0,0E0,0E0,0E0],"parents":[2147483647,0,0,1,1,2,2,3,3,4,4,5,5,6,6,7,7,8,8,9,9,10,10,11,11,12,12,13,13,14,14],"right_children":[2,4,6,8,10,12,14,16,18,20,22,24,26,28,30,-1,-1,-1,-1,-1,-1,-1,-1,-1,-1,-1,-1,-1,-1,-1,-1],"split_conditions":[-4.384815E-3,8.8202173E-4,-1.638667E-2,-5.4921634E-2,-4.6752654E-2,1.3965416E-3,-3.520219E-3,-5.0353173E-2,6.531646E-3,-1.0359339E-2,-2.2837145E-2,-4.140346E-2,-7.605003E-2,-6.528942E-3,-3.1413082E-2,3.5867293E-3,-1.5045606E-2,2.2523997E-3,-1.329461E-2,-1.6466236E-2,2.0741314E-2,1.9010833E-2,-6.767796E-3,4.345658E-4,8.516846E-3,-2.5877443E-3,-1.2081549E-2,7.5352886E-3,1.4749366E-2,1.0561406E-3,9.281467E-3],"split_indices":[78,248,345,118,167,46,6,113,273,21,252,263,49,303,209,0,0,0,0,0,0,0,0,0,0,0,0,0,0,0,0],"split_type":[0,0,0,0,0,0,0,0,0,0,0,0,0,0,0,0,0,0,0,0,0,0,0,0,0,0,0,0,0,0,0],"sum_hessian":[3E3,1.054E3,1.946E3,9.56E2,9.8E1,7.41E2,1.205E3,6.32E2,3.24E2,2.8E1,7E1,3.4E2,4.01E2,6.62E2,5.43E2,2E1,6.12E2,1.82E2,1.42E2,2.4E1,4E0,6.3E1,7E0,2.11E2,1.29E2,2.76E2,1.25E2,2.37E2,4.25E2,2.79E2,2.64E2],"tree_param":{"num_deleted":"0","num_feature":"384","num_nodes":"31","size_leaf_vector":"1"}},{"base_weights":[3.756828E-5,5.440713E-2,-7.202003E-2,1.04073755E-1,1.734219E-2,7.4430574E-3,-1.0900903E-1,1.3228689E-1,6.8617895E-2,-3.2327775E-2,5.536748E-2,-1.8745542E-2,1.3981709E-1,-1.268126E-1,-1.387146E-2,8.834812E-3,1.6230976E-2,1.5131044E-3,9.541484E-3,-8.8213645E-3,1.09382E-3,1.0933661E-2,3.4606655E-3,-4.252593E-3,9.924958E-3,1.9476037E-2,-1.7847748E-4,-1.3203764E-2,6.8413266E-3,1.5622674E-3,-1.2730151E-2],"categories":[],"categories_nodes":[],"categories_segments":[],"categories_sizes":[],"default_left":[0,0,0,0,0,0,0,0,0,0,0,0,0,0,0,0,0,0,0,0,0,0,0,0,0,0,0,0,0,0,0],"id":8,"left_children":[1,3,5,7,9,11,13,15,17,19,21,23,25,27,29,-1,-1,-1,-1,-1,-1,-1,-1,-1,-1,-1,-1,-1,-1,-1,-1],"loss_changes":[1.1761057E1,3.1479588E0,3.7953954E0,7.221575E-1,1.8546193E0,1.4274309E0,1.4904699E0,5.212426E-1,4.6580684E-1,1.0310144E0,6.1918294E-1,9.694742E-1,5.2939236E-1,7.659197E-1,4.703618E-1,0E0,0E0,0E0,0E0,0E0,0E0,0E0,0E0,0E0,0E0,0E0,0E0,0E0,0E0,0E0,0E0],"parents":[2147483647,0,0,1,1,2,2,3,3,4,4,5,5,6,6,7,7,8,8,9,9,10,10,11,11,12,12,13,13,14,14],"right_children":[2,4,6,8,10,12,14,16,18,20,22,24,26,28,30,-1,-1,-1,-1,-1,-1,-1,-1,-1,-1,-1,-1,-1,-1,-1,-1],"split_conditions":[-4.6922266E-3,-7.501793E-2,3.3620186E-2,1.3627735E-3,-2.8129112E-2,9.90837E-3,3.13222E-2,-5.884304E-2,-1.2628637E-2,-1.8981116E-2,-8.539017E-3,-1.2643266E-2,2.7303489E-2,4.6197534E-2,2.8036356E-2,8.834812E-3,1.6230976E-2,1.5131044E-3,9.541484E-3,-8.8213645E-3,1.09382E-3,1.0933661E-2,3.4606655E-3,-4.252593E-3,9.924958E-3,1.9476037E-2,-1.7847748E-4,-1.3203764E-2,6.8413266E-3,1.5622674E-3,-1.2730151E-2],"split_indices":[129,146,51,2,248,95,232,308,262,42,148,118,332,303,98,0,0,0,0,0,0,0,0,0,0,0,0,0,0,0,0],"split_type":[0,0,0,0,0,0,0,0,0,0,0,0,0,0,0,0,0,0,0,0,0,0,0,0,0,0,0,0,0,0,0],"sum_hessian":[3E3,1.71E3,1.29E3,7.3E2,9.8E2,4.1E2,8.8E2,4.05E2,3.25E2,4.25E2,5.55E2,3.43E2,6.7E1,7.41E2,1.39E2,1.66E2,2.39E2,1.09E2,2.16E2,1.85E2,2.4E2,1.53E2,4.02E2,2.86E2,5.7E1,4.8E1,1.9E1,7.22E2,1.9E1,1.11E2,2.8E1],"tree_param":{"num_deleted":"0","num_feature":"384","num_nodes":"31","size_leaf_vector":"1"}},{"base_weights":[5.0547445E-5,-7.8421794E-2,4.1158877E-2,-1.08836494E-1,4.8703724E-3,-2.4408212E-2,7.229207E-2,-1.22117825E-1,-1.1320765E-3,-1.9233812E-2,1.1206213E-1,-9.46617E-2,6.253933E-3,4.63159E-3,8.934552E-2,-1.3365674E-2,-5.2220146E-3,5.7556736E-3,-9.357712E-3,6.5923564E-4,-1.1568124E-2,-1.7125712E-3,1.7715974E-2,2.7556377E-3,-1.2286174E-2,2.5951671E-3,-9.731663E-3,-1.1498101E-2,2.2351122E-3,5.748111E-3,1.1755518E-2],"categories":[],"categories_nodes":[],"categories_segments":[],"categories_sizes":[],"default_left":[0,0,0,0,0,0,0,0,0,0,0,0,0,0,0,0,0,0,0,0,0,0,0,0,0,0,0,0,0,0,0],"id":9,"left_children":[1,3,5,7,9,11,13,15,17,19,21,23,25,27,29,-1,-1,-1,-1,-1,-1,-1,-1,-1,-1,-1,-1,-1,-1,-1,-1],"loss_changes":[9.684054E0,2.614903E0,4.023151E0,1.0812874E0,7.178596E-1,1.3684597E0,1.5411224E0,5.358238E-1,4.611271E-1,5.6618947E-1,4.319347E-1,6.68571E-1,9.062923E-1,5.748293E-1,9.523525E-1,0E0,0E0,0E0,0E0,0E0,0E0,0E0,0E0,0E0,0E0,0E0,0E0,0E0,0E0,0E0,0E0],"parents":[2147483647,0,0,1,1,2,2,3,3,4,4,5,5,6,6,7,7,8,8,9,9,10,10,11,11,12,12,13,13,14,14],"right_children":[2,4,6,8,10,12,14,16,18,20,22,24,26,28,30,-1,-1,-1,-1,-1,-1,-1,-1,-1,-1,-1,-1,-1,-1,-1,-1],"split_conditions":[-4.465503E-2,1.0005709E-2,-4.7604024E-2,6.987453E-3,2.5637824E-2,-6.792289E-3,-2.7695222E-2,-3.701435E-2,3.6838546E-3,4.8122205E-2,-1.0008272E-2,-6.483765E-2,4.0508498E-2,-9.732496E-3,2.121918E-3,-1.3365674E-2,-5.2220146E-3,5.7556736E-3,-9.357712E-3,6.5923564E-4,-1.1568124E-2,-1.7125712E-3,1.7715974E-2,2.7556377E-3,-1.2286174E-2,2.5951671E-3,-9.731663E-3,-1.1498101E-2,2.2351122E-3,5.748111E-3,1.1755518E-2],"split_indices":[248,78,167,89,86,78,345,54,34,194,222,235,46,3,303,0,0,0,0,0,0,0,0,0,0,0,0,0,0,0,0],"split_type":[0,0,0,0,0,0,0,0,0,0,0,0,0,0,0,0,0,0,0,0,0,0,0,0,0,0,0,0,0,0,0],"sum_hessian":[3E3,1.031E3,1.969E3,7.55E2,2.76E2,6.34E2,1.335E3,6.72E2,8.3E1,2.26E2,5E1,1.92E2,4.42E2,2.69E2,1.066E3,5.76E2,9.6E1,5.1E1,3.2E1,1.79E2,4.7E1,1.7E1,3.3E1,3.6E1,1.56E2,3.72E2,7E1,3.4E1,2.35E2,5.02E2,5.64E2],"tree_param":{"num_deleted":"0","num_feature":"384","num_nodes":"31","size_leaf_vector":"1"}},{"base_weights":[3.6990947E-5,-6.2766746E-2,4.2974576E-2,4.22829E-2,-8.367363E-2,-2.4016155E-2,6.8024285E-2,8.4574275E-2,-5.0890137E-2,-1.1773205E-1,-4.134714E-2,-1.0429119E-1,-2.6861017E-3,8.907476E-2,1.9675788E-2,-1.9544436E-4,1.357271E-2,-8.7178415E-3,1.5378435E-2,-1.3784935E-2,-7.719385E-3,7.542565E-3,-5.927573E-3,-1.5957134E-2,1.4882717E-4,1.8279558E-3,-7.2619976E-3,3.1905174E-3,1.0579559E-2,-1.247033E-2,3.494598E-3],"categories":[],"categories_nodes":[],"categories_segments":[],"categories_sizes":[],"default_left":[0,0,0,0,0,0,0,0,0,0,0,0,0,0,0,0,0,0,0,0,0,0,0,0,0,0,0,0,0,0,0],"id":10,"left_children":[1,3,5,7,9,11,13,15,17,19,21,23,25,27,29,-1,-1,-1,-1,-1,-1,-1,-1,-1,-1,-1,-1,-1,-1,-1,-1],"loss_changes":[8.095316E0,2.6807814E0,2.9936833E0,8.042084E-1,1.4612122E0,8.318835E-1,1.3192983E0,6.199316E-1,4.8875284E-1,4.484954E-1,9.570458E-1,5.966829E-1,5.6581825E-1,8.6077833E-1,8.75213E-1,0E0,0E0,0E0,0E0,0E0,0E0,0E0,0E0,0E0,0E0,0E0,0E0,0E0,0E0,0E0,0E0],"parents":[2147483647,0,0,1,1,2,2,3,3,4,4,5,5,6,6,7,7,8,8,9,9,10,10,11,11,12,12,13,13,14,14],"right_children":[2,4,6,8,10,12,14,16,18,20,22,24,26,28,30,-1,-1,-1,-1,-1,-1,-1,-1,-1,-1,-1,-1,-1,-1,-1,-1],"split_conditions":[-4.0908284E-3,-1.7018767E-2,-2.6856929E-2,3.3763085E-2,1.7641162E-3,-1.2793833E-2,7.863173E-2,-1.3629572E-2,6.2308062E-2,3.0418104E-2,-3.1225357E-2,4.2153366E-2,5.64343E-2,-7.436897E-3,-1.453602E-2,-1.9544436E-4,1.357271E-2,-8.7178415E-3,1.5378435E-2,-1.3784935E-2,-7.719385E-3,7.542565E-3,-5.927573E-3,-1.5957134E-2,1.4882717E-4,1.8279558E-3,-7.2619976E-3,3.1905174E-3,1.0579559E-2,-1.247033E-2,3.494598E-3],"split_indices":[362,46,345,102,246,78,189,347,145,99,12,221,50,27,3,0,0,0,0,0,0,0,0,0,0,0,0,0,0,0,0],"split_type":[0,0,0,0,0,0,0,0,0,0,0,0,0,0,0,0,0,0,0,0,0,0,0,0,0,0,0,0,0,0,0],"sum_hessian":[3E3,1.218E3,1.782E3,2.02E2,1.016E3,4.85E2,1.297E3,1.39E2,6.3E1,5.62E2,4.54E2,1.01E2,3.84E2,9.03E2,3.94E2,5.2E1,8.7E1,5.4E1,9E0,3.74E2,1.88E2,6E1,3.94E2,6.6E1,3.5E1,2.96E2,8.8E1,2.05E2,6.98E2,3.7E1,3.57E2],"tree_param":{"num_deleted":"0","num_feature":"384","num_nodes":"31","size_leaf_vector":"1"}},{"base_weights":[2.7854074E-5,3.6591228E-2,-6.185117E-2,6.8079844E-2,-6.001229E-3,1.994208E-3,-8.915764E-2,9.900919E-2,3.5384707E-2,4.683319E-2,-3.8282786E-2,1.5622978E-1,-1.3133444E-2,-1.0372358E-1,-1.4733464E-2,7.7434084E-3,1.4451218E-2,4.466706E-3,-8.9252675E-3,-9.956936E-4,7.376744E-3,-6.123728E-3,4.5387987E-3,6.639693E-3,2.6859606E-2,1.2645154E-2,-2.6546519E-3,4.2496687E-3,-1.1034224E-2,1.8255452E-3,-8.859019E-3],"categories":[],"categories_nodes":[],"categories_segments":[],"categories_sizes":[],"default_left":[0,0,0,0,0,0,0,0,0,0,0,0,0,0,0,0,0,0,0,0,0,0,0,0,0,0,0,0,0,0,0],"id":11,"left_children":[1,3,5,7,9,11,13,15,17,19,21,23,25,27,29,-1,-1,-1,-1,-1,-1,-1,-1,-1,-1,-1,-1,-1,-1,-1,-1],"loss_changes":[6.792043E0,2.5312104E0,1.9440594E0,1.0936918E0,1.3713716E0,7.836813E-1,8.451214E-1,5.356345E-1,6.160014E-1,4.672622E-1,9.611688E-1,2.8499156E-1,5.762696E-1,6.366515E-1,3.1591973E-1,0E0,0E0,0E0,0E0,0E0,0E0,0E0,0E0,0E0,0E0,0E0,0E0,0E0,0E0,0E0,0E0],"parents":[2147483647,0,0,1,1,2,2,3,3,4,4,5,5,6,6,7,7,8,8,9,9,10,10,11,11,12,12,13,13,14,14],"right_children":[2,4,6,8,10,12,14,16,18,20,22,24,26,28,30,-1,-1,-1,-1,-1,-1,-1,-1,-1,-1,-1,-1,-1,-1,-1,-1],"split_conditions":[2.814949E-3,-5.492188E-2,3.3620186E-2,-8.261017E-4,5.4310612E-2,-4.407915E-2,3.4088127E-2,-3.0914199E-2,1.6918644E-2,-2.2646047E-2,6.2126957E-2,6.878564E-2,-6.075149E-2,-2.2199494E-5,4.556453E-2,7.7434084E-3,1.4451218E-2,4.466706E-3,-8.9252675E-3,-9.956936E-4,7.376744E-3,-6.123728E-3,4.5387987E-3,6.639693E-3,2.6859606E-2,1.2645154E-2,-2.6546519E-3,4.2496687E-3,-1.1034224E-2,1.8255452E-3,-8.859019E-3],"split_indices":[129,146,51,2,101,46,91,308,273,345,3,199,198,101,129,0,0,0,0,0,0,0,0,0,0,0,0,0,0,0,0],"split_type":[0,0,0,0,0,0,0,0,0,0,0,0,0,0,0,0,0,0,0,0,0,0,0,0,0,0,0,0,0,0,0],"sum_hessian":[3E3,1.886E3,1.114E3,1.084E3,8.02E2,3.34E2,7.8E2,5.56E2,5.28E2,3.04E2,4.98E2,2.9E1,3.05E2,6.52E2,1.28E2,3.79E2,1.77E2,4.92E2,3.6E1,9.8E1,2.06E2,3.91E2,1.07E2,1.7E1,1.2E1,2.6E1,2.79E2,2.8E1,6.24E2,8.9E1,3.9E1],"tree_param":{"num_deleted":"0","num_feature":"384","num_nodes":"31","size_leaf_vector":"1"}},{"base_weights":[4.2462787E-5,-5.989533E-2,3.1441323E-2,-8.300808E-2,3.4011963E-3,-4.5984913E-2,4.808147E-2,-9.357192E-2,2.6166115E-3,-1.1282927E-2,1.4559342E-1,-1.2213079E-2,-1.2329003E-1,2.3219738E-2,8.1713945E-2,-9.529147E-3,2.1784497E-2,1.6673272E-2,-2.1814387E-3,2.3582103E-3,-5.3694826E-3,2.415222E-2,3.108602E-3,-6.6440697E-3,3.4301567E-3,-1.382491E-2,1.4906942E-2,5.604031E-3,-7.6743256E-4,4.3419767E-3,1.0328629E-2],"categories":[],"categories_nodes":[],"categories_segments":[],"categories_sizes":[],"default_left":[0,0,0,0,0,0,0,0,0,0,0,0,0,0,0,0,0,0,0,0,0,0,0,0,0,0,0,0,0,0,0],"id":12,"left_children":[1,3,5,7,9,11,13,15,17,19,21,23,25,27,29,-1,-1,-1,-1,-1,-1,-1,-1,-1,-1,-1,-1,-1,-1,-1,-1],"loss_changes":[5.6497006E0,1.5100539E0,2.5403268E0,6.840663E-1,5.8000994E-1,9.0964085E-1,1.3543568E0,3.811469E-1,3.404369E-1,3.7389666E-1,2.7809054E-1,6.177393E-1,4.524789E-1,9.474695E-1,5.6469536E-1,0E0,0E0,0E0,0E0,0E0,0E0,0E0,0E0,0E0,0E0,0E0,0E0,0E0,0E0,0E0,0E0],"parents":[2147483647,0,0,1,1,2,2,3,3,4,4,5,5,6,6,7,7,8,8,9,9,10,10,11,11,12,12,13,13,14,14],"right_children":[2,4,6,8,10,12,14,16,18,20,22,24,26,28,30,-1,-1,-1,-1,-1,-1,-1,-1,-1,-1,-1,-1,-1,-1,-1,-1],"split_conditions":[-4.465503E-2,1.0005709E-2,-6.832721E-2,6.987453E-3,7.598105E-2,-3.4213286E-2,3.1958565E-2,5.2796178E-2,-6.508793E-2,-6.2184217E-3,2.8309114E-2,9.129448E-2,1.0091893E-1,1.5636681E-3,-5.6336354E-3,-9.529147E-3,2.1784497E-2,1.6673272E-2,-2.1814387E-3,2.3582103E-3,-5.3694826E-3,2.415222E-2,3.108602E-3,-6.6440697E-3,3.4301567E-3,-1.382491E-2,1.4906942E-2,5.604031E-3,-7.6743256E-4,4.3419767E-3,1.0328629E-2],"split_indices":[248,78,167,89,271,108,9,105,23,301,117,10,310,2,303,0,0,0,0,0,0,0,0,0,0,0,0,0,0,0,0],"split_type":[0,0,0,0,0,0,0,0,0,0,0,0,0,0,0,0,0,0,0,0,0,0,0,0,0,0,0,0,0,0,0],"sum_hessian":[3E3,1.031E3,1.969E3,7.55E2,2.76E2,3.48E2,1.621E3,6.72E2,8.3E1,2.51E2,2.5E1,2.43E2,1.05E2,9.33E2,6.88E2,6.69E2,3E0,1E1,7.3E1,1.38E2,1.13E2,1.3E1,1.2E1,1.12E2,1.31E2,1E2,5E0,4.52E2,4.81E2,2.49E2,4.39E2],"tree_param":{"num_deleted":"0","num_feature":"384","num_nodes":"31","size_leaf_vector":"1"}},{"base_weights":[6.09959E-5,-3.2128718E-2,5.0112523E-2,-6.2972695E-2,1.1650216E-2,-6.590782E-2,6.0379043E-2,-2.2736466E-2,-8.512504E-2,4.9049202E-2,-1.5762428E-2,7.979843E-2,-1.005554E-1,1.5494138E-2,7.859336E-2,-7.7739367E-3,9.766225E-4,-9.551632E-3,5.537725E-4,8.604554E-3,8.6112897E-4,-4.245582E-4,-1.1356332E-2,2.1249194E-2,1.7229904E-3,-2.0809187E-2,-5.1802113E-3,-1.1275318E-3,7.704168E-3,4.228519E-3,9.945642E-3],"categories":[],"categories_nodes":[],"categories_segments":[],"categories_sizes":[],"default_left":[0,0,0,0,0,0,0,0,0,0,0,0,0,0,0,0,0,0,0,0,0,0,0,0,0,0,0,0,0,0,0],"id":13,"left_children":[1,3,5,7,9,11,13,15,17,19,21,23,25,27,29,-1,-1,-1,-1,-1,-1,-1,-1,-1,-1,-1,-1,-1,-1,-1,-1],"loss_changes":[4.836654E0,2.4677622E0,1.4035513E0,9.535661E-1,7.758282E-1,4.9266753E-1,8.8173413E-1,6.836767E-1,6.515217E-1,4.779966E-1,4.9173623E-1,1.5408507E-1,3.981555E-1,5.165657E-1,5.7755375E-1,0E0,0E0,0E0,0E0,0E0,0E0,0E0,0E0,0E0,0E0,0E0,0E0,0E0,0E0,0E0,0E0],"parents":[2147483647,0,0,1,1,2,2,3,3,4,4,5,5,6,6,7,7,8,8,9,9,10,10,11,11,12,12,13,13,14,14],"right_children":[2,4,6,8,10,12,14,16,18,20,22,24,26,28,30,-1,-1,-1,-1,-1,-1,-1,-1,-1,-1,-1,-1,-1,-1,-1,-1],"split_conditions":[-1.51084615E-2,9.688473E-3,-8.189015E-2,-4.9441718E-2,-1.2044181E-3,-1.2491936E-2,-1.5264844E-2,-6.90532E-2,1.2177442E-2,-8.90971E-3,1.8527858E-2,-4.3503717E-2,2.038862E-2,1.161516E-2,-7.448509E-3,-7.7739367E-3,9.766225E-4,-9.551632E-3,5.537725E-4,8.604554E-3,8.6112897E-4,-4.245582E-4,-1.1356332E-2,2.1249194E-2,1.7229904E-3,-2.0809187E-2,-5.1802113E-3,-1.1275318E-3,7.704168E-3,4.228519E-3,9.945642E-3],"split_indices":[248,78,167,290,2,88,345,54,169,100,273,67,221,153,303,0,0,0,0,0,0,0,0,0,0,0,0,0,0,0,0],"split_type":[0,0,0,0,0,0,0,0,0,0,0,0,0,0,0,0,0,0,0,0,0,0,0,0,0,0,0,0,0,0,0],"sum_hessian":[3E3,1.826E3,1.174E3,1.071E3,7.55E2,9.5E1,1.079E3,3.81E2,6.9E2,3.19E2,4.36E2,1.8E1,7.7E1,3.12E2,7.67E2,1.41E2,2.4E2,6.19E2,7.1E1,1.66E2,1.53E2,3.91E2,4.5E1,5E0,1.3E1,2.3E1,5.4E1,2.18E2,9.4E1,2.81E2,4.86E2],"tree_param":{"num_deleted":"0","num_feature":"384","num_nodes":"31","size_leaf_vector":"1"}},{"base_weights":[5.4777924E-5,2.8147835E-2,-4.7489304E-2,-8.82533E-3,5.1850483E-2,-1.2846682E-2,-8.131065E-2,6.5355465E-2,-2.4942365E-2,-5.425498E-2,5.9409395E-2,7.504581E-2,-3.1749137E-2,-5.6566257E-2,-1.0842921E-1,5.336211E-3,2.7189944E-2,-1.0021282E-2,-9.360878E-4,-1.6140789E-3,-1.3775128E-2,9.943581E-3,4.376681E-3,1.4602992E-3,1.3046168E-2,-4.4181966E-4,-7.930471E-3,-1.0317496E-2,-2.7381703E-3,-1.489337E-2,-8.9451885E-3],"categories":[],"categories_nodes":[],"categories_segments":[],"categories_sizes":[],"default_left":[0,0,0,0,0,0,0,0,0,0,0,0,0,0,0,0,0,0,0,0,0,0,0,0,0,0,0,0,0,0,0],"id":14,"left_children":[1,3,5,7,9,11,13,15,17,19,21,23,25,27,29,-1,-1,-1,-1,-1,-1,-1,-1,-1,-1,-1,-1,-1,-1,-1,-1],"loss_changes":[4.0096483E0,1.6541525E0,1.3053565E0,8.839641E-1,9.255712E-1,9.194665E-1,3.7232852E-1,3.1247544E-1,7.10967E-1,2.4282095E-1,6.680975E-1,3.263449E-1,5.910305E-1,4.011703E-1,1.9268036E-1,0E0,0E0,0E0,0E0,0E0,0E0,0E0,0E0,0E0,0E0,0E0,0E0,0E0,0E0,0E0,0E0],"parents":[2147483647,0,0,1,1,2,2,3,3,4,4,5,5,6,6,7,7,8,8,9,9,10,10,11,11,12,12,13,13,14,14],"right_children":[2,4,6,8,10,12,14,16,18,20,22,24,26,28,30,-1,-1,-1,-1,-1,-1,-1,-1,-1,-1,-1,-1,-1,-1,-1,-1],"split_conditions":[2.814949E-3,7.0206724E-2,1.4331292E-3,3.0555425E-2,-3.9476506E-2,-3.2330677E-2,3.0604752E-2,6.7651056E-2,-2.4192294E-2,-5.089016E-2,-4.5081094E-2,2.121918E-3,3.405899E-2,-2.1379564E-2,-3.1423215E-2,5.336211E-3,2.7189944E-2,-1.0021282E-2,-9.360878E-4,-1.6140789E-3,-1.3775128E-2,9.943581E-3,4.376681E-3,1.4602992E-3,1.3046168E-2,-4.4181966E-4,-7.930471E-3,-1.0317496E-2,-2.7381703E-3,-1.489337E-2,-8.9451885E-3],"split_indices":[129,260,113,101,27,198,46,213,78,174,6,303,87,309,377,0,0,0,0,0,0,0,0,0,0,0,0,0,0,0,0],"split_type":[0,0,0,0,0,0,0,0,0,0,0,0,0,0,0,0,0,0,0,0,0,0,0,0,0,0,0,0,0,0,0],"sum_hessian":[3E3,1.886E3,1.114E3,7.37E2,1.149E3,5.51E2,5.63E2,1.31E2,6.06E2,7.6E1,1.073E3,9.7E1,4.54E2,2.96E2,2.67E2,1.25E2,6E0,1.03E2,5.03E2,5.3E1,2.3E1,3E2,7.73E2,4.7E1,5E1,2.89E2,1.65E2,1.13E2,1.83E2,8.3E1,1.84E2],"tree_param":{"num_deleted":"0","num_feature":"384","num_nodes":"31","size_leaf_vector":"1"}},{"base_weights":[4.587454E-5,3.434119E-2,-3.424947E-2,1.1214456E-3,6.0693387E-2,8.115421E-4,-7.0210576E-2,8.6702466E-2,-1.1739816E-2,6.921005E-2,-2.5495997E-2,-5.7735708E-2,2.1928921E-2,-1.3120613E-3,-8.654159E-2,1.0952675E-2,-6.5076533E-3,6.481363E-3,-2.863744E-3,4.7257934E-3,9.574706E-3,1.4295446E-2,-4.1976813E-3,-1.2154244E-2,-2.5876982E-3,3.4711175E-3,-5.9930566E-3,-2.8372498E-3,6.907787E-3,5.899495E-3,-9.038071E-3],"categories":[],"categories_nodes":[],"categories_segments":[],"categories_sizes":[],"default_left":[0,0,0,0,0,0,0,0,0,0,0,0,0,0,0,0,0,0,0,0,0,0,0,0,0,0,0,0,0,0,0],"id":15,"left_children":[1,3,5,7,9,11,13,15,17,19,21,23,25,27,29,-1,-1,-1,-1,-1,-1,-1,-1,-1,-1,-1,-1,-1,-1,-1,-1],"loss_changes":[3.5308614E0,1.3139274E0,1.8925672E0,7.3297E-1,6.161611E-1,9.4213945E-1,8.3364654E-1,3.085171E-1,7.50834E-1,4.3937302E-1,2.1699205E-1,4.0748066E-1,5.880354E-1,2.743438E-1,3.4001255E-1,0E0,0E0,0E0,0E0,0E0,0E0,0E0,0E0,0E0,0E0,0E0,0E0,0E0,0E0,0E0,0E0],"parents":[2147483647,0,0,1,1,2,2,3,3,4,4,5,5,6,6,7,7,8,8,9,9,10,10,11,11,12,12,13,13,14,14],"right_children":[2,4,6,8,10,12,14,16,18,20,22,24,26,28,30,-1,-1,-1,-1,-1,-1,-1,-1,-1,-1,-1,-1,-1,-1,-1,-1],"split_conditions":[1.0154448E-2,-3.5412483E-2,-6.5575786E-2,2.9093796E-2,6.9466956E-2,-7.893074E-2,-1.803759E-2,5.5018943E-2,-5.971462E-2,4.2140387E-2,-4.63582E-2,-7.2610706E-2,3.0116318E-2,6.16145E-2,-4.850367E-2,1.0952675E-2,-6.5076533E-3,6.481363E-3,-2.863744E-3,4.7257934E-3,9.574706E-3,1.4295446E-2,-4.1976813E-3,-1.2154244E-2,-2.5876982E-3,3.4711175E-3,-5.9930566E-3,-2.8372498E-3,6.907787E-3,5.899495E-3,-9.038071E-3],"split_indices":[46,167,24,324,292,54,327,255,129,163,46,167,129,3,273,0,0,0,0,0,0,0,0,0,0,0,0,0,0,0,0],"split_type":[0,0,0,0,0,0,0,0,0,0,0,0,0,0,0,0,0,0,0,0,0,0,0,0,0,0,0,0,0,0,0],"sum_hessian":[3E3,1.5E3,1.5E3,6.64E2,8.36E2,7.6E2,7.4E2,8.6E1,5.78E2,7.61E2,7.5E1,2.01E2,5.59E2,1.42E2,5.98E2,7.5E1,1.1E1,1.04E2,4.74E2,4.18E2,3.43E2,6E0,6.9E1,6.6E1,1.35E2,4.84E2,7.5E1,1.03E2,3.9E1,1.5E1,5.83E2],"tree_param":{"num_deleted":"0","num_feature":"384","num_nodes":"31","size_leaf_vector":"1"}},{"base_weights":[4.6656733E-5,-2.3737147E-2,4.2372975E-2,-6.8798326E-2,-4.498337E-3,-6.030569E-2,5.109317E-2,-7.23968E-2,1.2228664E-1,2.0070272E-2,-3.4077693E-2,-2.4758303E-3,-1.352613E-1,6.709502E-2,1.596104E-2,-9.358482E-3,-4.7181677E-3,-5.29748E-3,2.77167E-2,1.5087562E-3,1.674696E-2,-1.642864E-4,-5.9174667E-3,-4.0186387E-3,1.1714726E-2,-1.0096138E-2,-2.6783789E-2,8.286353E-3,2.4743066E-3,-1.588339E-3,5.752242E-3],"categories":[],"categories_nodes":[],"categories_segments":[],"categories_sizes":[],"default_left":[0,0,0,0,0,0,0,0,0,0,0,0,0,0,0,0,0,0,0,0,0,0,0,0,0,0,0,0,0,0,0],"id":16,"left_children":[1,3,5,7,9,11,13,15,17,19,21,23,25,27,29,-1,-1,-1,-1,-1,-1,-1,-1,-1,-1,-1,-1,-1,-1,-1,-1],"loss_changes":[3.0220551E0,1.6659173E0,9.700893E-1,4.042313E-1,9.803074E-1,3.6811224E-1,5.588589E-1,2.974403E-1,3.1327295E-1,5.387615E-1,4.980806E-1,2.257493E-1,1.4121127E-1,4.5474386E-1,4.1516864E-1,0E0,0E0,0E0,0E0,0E0,0E0,0E0,0E0,0E0,0E0,0E0,0E0,0E0,0E0,0E0,0E0],"parents":[2147483647,0,0,1,1,2,2,3,3,4,4,5,5,6,6,7,7,8,8,9,9,10,10,11,11,12,12,13,13,14,14],"right_children":[2,4,6,8,10,12,14,16,18,20,22,24,26,28,30,-1,-1,-1,-1,-1,-1,-1,-1,-1,-1,-1,-1,-1,-1,-1,-1],"split_conditions":[6.234456E-2,-2.2610785E-2,-7.327853E-2,7.462921E-2,1.2406647E-2,9.569356E-2,7.2353266E-2,2.2315872E-3,-3.5092242E-2,1.0190507E-1,-1.55838905E-2,3.3447403E-2,-1.5079692E-2,1.8637117E-2,-2.5948929E-2,-9.358482E-3,-4.7181677E-3,-5.29748E-3,2.77167E-2,1.5087562E-3,1.674696E-2,-1.642864E-4,-5.9174667E-3,-4.0186387E-3,1.1714726E-2,-1.0096138E-2,-2.6783789E-2,8.286353E-3,2.4743066E-3,-1.588339E-3,5.752242E-3],"split_indices":[183,78,167,309,46,240,136,59,18,349,113,246,93,2,209,0,0,0,0,0,0,0,0,0,0,0,0,0,0,0,0],"split_type":[0,0,0,0,0,0,0,0,0,0,0,0,0,0,0,0,0,0,0,0,0,0,0,0,0,0,0,0,0,0,0],"sum_hessian":[3E3,1.921E3,1.079E3,5.74E2,1.347E3,8.4E1,9.95E2,5.64E2,1E1,7.36E2,6.11E2,4.8E1,3.6E1,6.83E2,3.12E2,3.05E2,2.59E2,5E0,5E0,7.13E2,2.3E1,2.67E2,3.44E2,3.7E1,1.1E1,3E1,6E0,4.97E2,1.86E2,1.77E2,1.35E2],"tree_param":{"num_deleted":"0","num_feature":"384","num_nodes":"31","size_leaf_vector":"1"}},{"base_weights":[4.4072673E-5,-3.0000938E-2,2.8264616E-2,3.963447E-2,-4.1722573E-2,1.8046135E-3,5.4928195E-2,1.394151E-2,9.082123E-2,-1.3606132E-2,-7.456669E-2,3.0762339E-2,-2.35988E-2,5.0193634E-2,1.5608042E-1,1.7062426E-6,1.1550707E-2,1.8923342E-2,2.462674E-3,-2.509332E-3,5.7294792E-3,-8.1334105E-3,3.5307899E-3,3.6690894E-3,-1.32131E-2,-9.919181E-3,-1.1774336E-3,1.2296635E-3,6.2306817E-3,4.608097E-3,2.0668535E-2],"categories":[],"categories_nodes":[],"categories_segments":[],"categories_sizes":[],"default_left":[0,0,0,0,0,0,0,0,0,0,0,0,0,0,0,0,0,0,0,0,0,0,0,0,0,0,0,0,0,0,0],"id":17,"left_children":[1,3,5,7,9,11,13,15,17,19,21,23,25,27,29,-1,-1,-1,-1,-1,-1,-1,-1,-1,-1,-1,-1,-1,-1,-1,-1],"loss_changes":[2.5453558E0,1.1884676E0,1.0920432E0,2.7491304E-1,1.1486928E0,5.730423E-1,3.6140633E-1,1.9940647E-1,4.5134395E-1,5.4874945E-1,4.2967892E-1,3.5637075E-1,3.6977848E-1,3.3801496E-1,1.7973721E-1,0E0,0E0,0E0,0E0,0E0,0E0,0E0,0E0,0E0,0E0,0E0,0E0,0E0,0E0,0E0,0E0],"parents":[2147483647,0,0,1,1,2,2,3,3,4,4,5,5,6,6,7,7,8,8,9,9,10,10,11,11,12,12,13,13,14,14],"right_children":[2,4,6,8,10,12,14,16,18,20,22,24,26,28,30,-1,-1,-1,-1,-1,-1,-1,-1,-1,-1,-1,-1,-1,-1,-1,-1],"split_conditions":[-3.996452E-2,-5.1851194E-2,-5.16144E-3,-2.1788297E-2,2.3491424E-2,5.397212E-2,2.4135303E-2,-3.438824E-2,-3.1814487E-3,6.9161884E-2,4.509968E-2,6.418002E-2,-3.2443594E-2,-7.963948E-3,-4.4159956E-2,1.7062426E-6,1.1550707E-2,1.8923342E-2,2.462674E-3,-2.509332E-3,5.7294792E-3,-8.1334105E-3,3.5307899E-3,3.6690894E-3,-1.32131E-2,-9.919181E-3,-1.1774336E-3,1.2296635E-3,6.2306817E-3,4.608097E-3,2.0668535E-2],"split_indices":[167,129,262,107,98,101,107,24,351,349,78,129,37,382,176,0,0,0,0,0,0,0,0,0,0,0,0,0,0,0,0],"split_type":[0,0,0,0,0,0,0,0,0,0,0,0,0,0,0,0,0,0,0,0,0,0,0,0,0,0,0,0,0,0,0],"sum_hessian":[3E3,1.453E3,1.547E3,2.09E2,1.244E3,7.77E2,7.7E2,1.4E2,6.9E1,6.71E2,5.73E2,3.63E2,4.14E2,7.37E2,3.3E1,1.24E2,1.6E1,2.7E1,4.2E1,5.78E2,9.3E1,5.4E2,3.3E1,3.51E2,1.2E1,5.5E1,3.59E2,1.79E2,5.58E2,1.1E1,2.2E1],"tree_param":{"num_deleted":"0","num_feature":"384","num_nodes":"31","size_leaf_vector":"1"}},{"base_weights":[5.4217748E-5,-2.1380542E-2,3.338294E-2,1.2178694E-2,-3.821153E-2,8.011283E-3,5.9934083E-2,1.0353751E-1,1.3002635E-3,1.2109594E-2,-4.9204636E-2,2.078616E-2,-7.3253624E-2,1.17698655E-1,4.837665E-2,1.5443829E-2,4.9499236E-3,-5.4398744E-4,1.1763663E-2,6.0079E-3,-1.9961752E-3,-5.223905E-3,1.0194206E-2,-3.8391323E-4,5.530196E-3,-1.4059421E-3,-1.5234128E-2,2.3845801E-2,9.736649E-3,-5.385808E-3,5.6538614E-3],"categories":[],"categories_nodes":[],"categories_segments":[],"categories_sizes":[],"default_left":[0,0,0,0,0,0,0,0,0,0,0,0,0,0,0,0,0,0,0,0,0,0,0,0,0,0,0,0,0,0,0],"id":18,"left_children":[1,3,5,7,9,11,13,15,17,19,21,23,25,27,29,-1,-1,-1,-1,-1,-1,-1,-1,-1,-1,-1,-1,-1,-1,-1,-1],"loss_changes":[2.1446075E0,1.032419E0,7.9105425E-1,6.0710204E-1,6.7382276E-1,6.264885E-1,3.775146E-1,1.7114377E-1,4.2955527E-1,3.381184E-1,4.6350884E-1,4.4304228E-1,3.8174367E-1,2.1003568E-1,4.0357435E-1,0E0,0E0,0E0,0E0,0E0,0E0,0E0,0E0,0E0,0E0,0E0,0E0,0E0,0E0,0E0,0E0],"parents":[2147483647,0,0,1,1,2,2,3,3,4,4,5,5,6,6,7,7,8,8,9,9,10,10,11,11,12,12,13,13,14,14],"right_children":[2,4,6,8,10,12,14,16,18,20,22,24,26,28,30,-1,-1,-1,-1,-1,-1,-1,-1,-1,-1,-1,-1,-1,-1,-1,-1],"split_conditions":[-1.51084615E-2,-4.4266984E-2,-3.0016124E-2,-3.989952E-2,-2.4810158E-2,3.3776026E-2,-8.508131E-2,-5.304424E-2,5.0889213E-2,5.3925876E-4,1.04534276E-1,5.098529E-2,-6.391196E-2,2.6123902E-2,-8.800189E-2,1.5443829E-2,4.9499236E-3,-5.4398744E-4,1.1763663E-2,6.0079E-3,-1.9961752E-3,-5.223905E-3,1.0194206E-2,-3.8391323E-4,5.530196E-3,-1.4059421E-3,-1.5234128E-2,2.3845801E-2,9.736649E-3,-5.385808E-3,5.6538614E-3],"split_indices":[248,282,44,2,327,46,305,15,326,28,288,304,235,183,54,0,0,0,0,0,0,0,0,0,0,0,0,0,0,0,0],"split_type":[0,0,0,0,0,0,0,0,0,0,0,0,0,0,0,0,0,0,0,0,0,0,0,0,0,0,0,0,0,0,0],"sum_hessian":[3E3,1.826E3,1.174E3,6.1E2,1.216E3,6.01E2,5.73E2,6.4E1,5.46E2,2.18E2,9.98E2,5.2E2,8.1E1,9.4E1,4.79E2,3.2E1,3.2E1,5.17E2,2.9E1,8.7E1,1.31E2,9.79E2,1.9E1,3.04E2,2.16E2,4.7E1,3.4E1,1.2E1,8.2E1,3.5E1,4.44E2],"tree_param":{"num_deleted":"0","num_feature":"384","num_nodes":"31","size_leaf_vector":"1"}},{"base_weights":[6.977595E-5,-1.8679176E-2,3.3435903E-2,8.825368E-3,-3.7964508E-2,-5.271923E-3,4.9238797E-2,9.6739314E-2,2.270439E-3,2.0600148E-2,-4.7928486E-2,-7.3294215E-2,1.9486278E-2,5.2229103E-2,-1.4325371E-1,1.5457801E-2,9.54732E-4,-1.9847612E-4,1.2912265E-2,1.3883471E-2,6.972043E-4,-1.6372268E-3,-6.2534288E-3,-6.6618675E-5,-1.0584013E-2,-1.0492374E-3,8.451532E-3,1.4962154E-3,6.334506E-3,-2.5745695E-3,-1.9878952E-2],"categories":[],"categories_nodes":[],"categories_segments":[],"categories_sizes":[],"default_left":[0,0,0,0,0,0,0,0,0,0,0,0,0,0,0,0,0,0,0,0,0,0,0,0,0,0,0,0,0,0,0],"id":19,"left_children":[1,3,5,7,9,11,13,15,17,19,21,23,25,27,29,-1,-1,-1,-1,-1,-1,-1,-1,-1,-1,-1,-1,-1,-1,-1,-1],"loss_changes":[1.8779899E0,1.0198298E0,6.6089094E-1,4.567622E-1,6.603842E-1,5.302386E-1,4.489758E-1,2.7589303E-1,3.991548E-1,2.6489866E-1,4.4420934E-1,1.9848403E-1,4.5121726E-1,3.122313E-1,7.319282E-2,0E0,0E0,0E0,0E0,0E0,0E0,0E0,0E0,0E0,0E0,0E0,0E0,0E0,0E0,0E0,0E0],"parents":[2147483647,0,0,1,1,2,2,3,3,4,4,5,5,6,6,7,7,8,8,9,9,10,10,11,11,12,12,13,13,14,14],"right_children":[2,4,6,8,10,12,14,16,18,20,22,24,26,28,30,-1,-1,-1,-1,-1,-1,-1,-1,-1,-1,-1,-1,-1,-1,-1,-1],"split_conditions":[6.234456E-2,7.1326643E-3,-6.1746027E-2,-1.1530458E-1,-2.6104962E-2,-5.1334605E-2,9.718569E-2,1.879404E-2,1.055829E-1,-3.2390855E-2,-3.8368415E-2,-4.8542283E-3,1.65511E-2,-2.5656091E-2,6.567474E-3,1.5457801E-2,9.54732E-4,-1.9847612E-4,1.2912265E-2,1.3883471E-2,6.972043E-4,-1.6372268E-3,-6.2534288E-3,-6.6618675E-5,-1.0584013E-2,-1.0492374E-3,8.451532E-3,1.4962154E-3,6.334506E-3,-2.5745695E-3,-1.9878952E-2],"split_indices":[183,46,118,146,327,167,51,185,349,115,126,317,119,119,59,0,0,0,0,0,0,0,0,0,0,0,0,0,0,0,0],"split_type":[0,0,0,0,0,0,0,0,0,0,0,0,0,0,0,0,0,0,0,0,0,0,0,0,0,0,0,0,0,0,0],"sum_hessian":[3E3,1.921E3,1.079E3,7.92E2,1.129E3,3.13E2,7.66E2,5.4E1,7.38E2,1.64E2,9.65E2,8.3E1,2.3E2,7.55E2,1.1E1,3.2E1,2.2E1,7.15E2,2.3E1,1.6E1,1.48E2,3.06E2,6.59E2,2.6E1,5.7E1,1.58E2,7.2E1,1.74E2,5.81E2,4E0,7E0],"tree_param":{"num_deleted":"0","num_feature":"384","num_nodes":"31","size_leaf_vector":"1"}},{"base_weights":[6.878274E-5,-2.5161209E-2,2.1305272E-2,-1.0019615E-2,-5.657622E-2,-4.9739618E-2,2.9233055E-2,-1.8906035E-3,-6.415261E-2,-6.270868E-2,6.4463444E-2,-6.927505E-2,3.3008885E-2,4.704879E-2,3.842963E-3,-9.061723E-4,4.94853E-3,-2.0829334E-3,-1.0241195E-2,5.352447E-3,-6.9186734E-3,2.1885144E-2,6.181595E-4,-1.08092455E-2,-3.1703939E-3,-6.8410463E-3,9.728102E-3,-6.4847185E-3,5.172187E-3,1.76881E-3,-3.989985E-3],"categories":[],"categories_nodes":[],"categories_segments":[],"categories_sizes":[],"default_left":[0,0,0,0,0,0,0,0,0,0,0,0,0,0,0,0,0,0,0,0,0,0,0,0,0,0,0,0,0,0,0],"id":20,"left_children":[1,3,5,7,9,11,13,15,17,19,21,23,25,27,29,-1,-1,-1,-1,-1,-1,-1,-1,-1,-1,-1,-1,-1,-1,-1,-1],"loss_changes":[1.6084613E0,6.5205693E-1,9.195163E-1,4.07803E-1,3.350954E-1,2.6739725E-1,6.634066E-1,2.9776555E-1,1.9842672E-1,3.237127E-1,1.9660354E-1,1.9054192E-1,2.1524505E-1,4.5409286E-1,3.6771464E-1,0E0,0E0,0E0,0E0,0E0,0E0,0E0,0E0,0E0,0E0,0E0,0E0,0E0,0E0,0E0,0E0],"parents":[2147483647,0,0,1,1,2,2,3,3,4,4,5,5,6,6,7,7,8,8,9,9,10,10,11,11,12,12,13,13,14,14],"right_children":[2,4,6,8,10,12,14,16,18,20,22,24,26,28,30,-1,-1,-1,-1,-1,-1,-1,-1,-1,-1,-1,-1,-1,-1,-1,-1],"split_conditions":[-1.8502671E-2,3.538524E-2,-8.189015E-2,5.6013133E-2,3.782972E-2,4.9145427E-2,4.3304698E-3,8.612273E-2,-3.2180496E-2,-3.0603833E-2,-3.9360035E-2,2.2242663E-2,-3.1355307E-2,-1.0464433E-1,2.873192E-2,-9.061723E-4,4.94853E-3,-2.0829334E-3,-1.0241195E-2,5.352447E-3,-6.9186734E-3,2.1885144E-2,6.181595E-4,-1.08092455E-2,-3.1703939E-3,-6.8410463E-3,9.728102E-3,-6.4847185E-3,5.172187E-3,1.76881E-3,-3.989985E-3],"split_indices":[345,213,167,129,80,246,2,69,308,343,231,221,339,118,46,0,0,0,0,0,0,0,0,0,0,0,0,0,0,0,0],"split_type":[0,0,0,0,0,0,0,0,0,0,0,0,0,0,0,0,0,0,0,0,0,0,0,0,0,0,0,0,0,0,0],"sum_hessian":[3E3,1.371E3,1.629E3,9.26E2,4.45E2,1.63E2,1.466E3,8.06E2,1.2E2,4.24E2,2.1E1,1.32E2,3.1E1,8.61E2,6.05E2,7.08E2,9.8E1,5.7E1,6.3E1,2.2E1,4.02E2,5E0,1.6E1,6.4E1,6.8E1,1.2E1,1.9E1,3.4E1,8.27E2,4.6E2,1.45E2],"tree_param":{"num_deleted":"0","num_feature":"384","num_nodes":"31","size_leaf_vector":"1"}},{"base_weights":[6.1242565E-5,-2.5952779E-2,1.814323E-2,2.3216356E-2,-3.6913157E-2,3.3643994E-2,-9.035355E-3,9.437907E-2,-3.620458E-4,1.2681767E-2,-4.7287945E-2,8.222704E-2,2.4515262E-2,-4.878632E-2,7.583806E-3,5.652075E-3,2.2848284E-2,1.05105005E-2,-9.764445E-4,2.6368856E-2,8.2557433E-4,-3.9003238E-3,-9.618788E-3,8.953488E-3,-1.0908402E-2,5.467786E-3,8.324138E-4,-1.1335544E-2,-2.5543463E-3,2.1924062E-3,-4.923616E-3],"categories":[],"categories_nodes":[],"categories_segments":[],"categories_sizes":[],"default_left":[0,0,0,0,0,0,0,0,0,0,0,0,0,0,0,0,0,0,0,0,0,0,0,0,0,0,0,0,0,0,0],"id":21,"left_children":[1,3,5,7,9,11,13,15,17,19,21,23,25,27,29,-1,-1,-1,-1,-1,-1,-1,-1,-1,-1,-1,-1,-1,-1,-1,-1],"loss_changes":[1.4120967E0,6.642582E-1,7.464067E-1,3.7756234E-1,5.1873827E-1,4.9825394E-1,4.2581418E-1,2.7139482E-1,1.6960567E-1,1.9224145E-1,3.337145E-1,2.5862384E-1,4.6398127E-1,2.82251E-1,3.718193E-1,0E0,0E0,0E0,0E0,0E0,0E0,0E0,0E0,0E0,0E0,0E0,0E0,0E0,0E0,0E0,0E0],"parents":[2147483647,0,0,1,1,2,2,3,3,4,4,5,5,6,6,7,7,8,8,9,9,10,10,11,11,12,12,13,13,14,14],"right_children":[2,4,6,8,10,12,14,16,18,20,22,24,26,28,30,-1,-1,-1,-1,-1,-1,-1,-1,-1,-1,-1,-1,-1,-1,-1,-1],"split_conditions":[-3.4932513E-2,-4.421121E-2,7.747203E-2,-4.9342226E-2,-1.0892321E-1,-4.0830266E-2,-3.812374E-3,7.923708E-2,7.060391E-4,-8.66828E-2,6.06503E-2,-6.656326E-3,-5.565134E-2,-5.2110706E-2,6.938754E-2,5.652075E-3,2.2848284E-2,1.05105005E-2,-9.764445E-4,2.6368856E-2,8.2557433E-4,-3.9003238E-3,-9.618788E-3,8.953488E-3,-1.0908402E-2,5.467786E-3,8.324138E-4,-1.1335544E-2,-2.5543463E-3,2.1924062E-3,-4.923616E-3],"split_indices":[95,129,189,192,49,276,246,324,136,77,46,235,348,331,25,0,0,0,0,0,0,0,0,0,0,0,0,0,0,0,0],"split_type":[0,0,0,0,0,0,0,0,0,0,0,0,0,0,0,0,0,0,0,0,0,0,0,0,0,0,0,0,0,0,0],"sum_hessian":[3E3,1.23E3,1.77E3,2.24E2,1.006E3,1.127E3,6.43E2,5.5E1,1.69E2,1.74E2,8.32E2,1.77E2,9.5E2,1.89E2,4.54E2,4.4E1,1.1E1,1.3E1,1.56E2,2E0,1.72E2,7.13E2,1.19E2,1.71E2,6E0,3.31E2,6.19E2,4.9E1,1.4E2,3.63E2,9.1E1],"tree_param":{"num_deleted":"0","num_feature":"384","num_nodes":"31","size_leaf_vector":"1"}},{"base_weights":[6.825781E-5,2.1348065E-2,-1.8703377E-2,3.793362E-2,-1.2184944E-3,2.641517E-3,-4.0842194E-2,6.727713E-2,2.4585066E-2,5.670735E-2,-1.2987693E-2,3.8078167E-2,-1.3070901E-2,-1.6706053E-2,-6.1449874E-2,3.3662263E-3,9.932816E-3,8.615974E-3,1.6024776E-3,1.0811121E-2,2.1131845E-4,-2.904149E-4,-8.240601E-3,7.490338E-3,5.640642E-4,-4.647642E-3,1.460607E-4,-4.576335E-3,1.1035064E-3,1.656085E-2,-6.4018876E-3],"categories":[],"categories_nodes":[],"categories_segments":[],"categories_sizes":[],"default_left":[0,0,0,0,0,0,0,0,0,0,0,0,0,0,0,0,0,0,0,0,0,0,0,0,0,0,0,0,0,0,0],"id":22,"left_children":[1,3,5,7,9,11,13,15,17,19,21,23,25,27,29,-1,-1,-1,-1,-1,-1,-1,-1,-1,-1,-1,-1,-1,-1,-1,-1],"loss_changes":[1.199169E0,5.266568E-1,7.5382626E-1,3.160094E-1,4.077357E-1,4.531724E-1,3.8842976E-1,2.6923645E-1,2.932666E-1,2.8321296E-1,3.4765202E-1,2.9820722E-1,2.738518E-1,2.9230663E-1,2.5676012E-1,0E0,0E0,0E0,0E0,0E0,0E0,0E0,0E0,0E0,0E0,0E0,0E0,0E0,0E0,0E0,0E0],"parents":[2147483647,0,0,1,1,2,2,3,3,4,4,5,5,6,6,7,7,8,8,9,9,10,10,11,11,12,12,13,13,14,14],"right_children":[2,4,6,8,10,12,14,16,18,20,22,24,26,28,30,-1,-1,-1,-1,-1,-1,-1,-1,-1,-1,-1,-1,-1,-1,-1,-1],"split_conditions":[7.1326643E-3,1.6940197E-2,-6.5575786E-2,-2.2355597E-2,-2.9717626E-2,3.9481416E-2,-3.175528E-2,-6.2898174E-2,-4.9000163E-2,-2.567997E-2,6.0017355E-2,5.4889705E-2,-7.802623E-2,-1.696772E-2,-7.3206395E-2,3.3662263E-3,9.932816E-3,8.615974E-3,1.6024776E-3,1.0811121E-2,2.1131845E-4,-2.904149E-4,-8.240601E-3,7.490338E-3,5.640642E-4,-4.647642E-3,1.460607E-4,-4.576335E-3,1.1035064E-3,1.656085E-2,-6.4018876E-3],"split_indices":[46,125,24,2,53,151,107,359,219,350,343,101,54,153,273,0,0,0,0,0,0,0,0,0,0,0,0,0,0,0,0],"split_type":[0,0,0,0,0,0,0,0,0,0,0,0,0,0,0,0,0,0,0,0,0,0,0,0,0,0,0,0,0,0,0],"sum_hessian":[3E3,1.406E3,1.594E3,8.1E2,5.96E2,8.12E2,7.82E2,2.52E2,5.58E2,1E2,4.96E2,2.49E2,5.63E2,3.61E2,4.21E2,1.24E2,1.28E2,6.7E1,4.91E2,5.1E1,4.9E1,4.34E2,6.2E1,1.16E2,1.33E2,1.7E2,3.93E2,1.76E2,1.85E2,4E0,4.17E2],"tree_param":{"num_deleted":"0","num_feature":"384","num_nodes":"31","size_leaf_vector":"1"}},{"base_weights":[7.351144E-5,-1.9195557E-2,1.8172447E-2,-1.2059212E-2,-7.724278E-2,4.3231517E-2,4.6284623E-3,2.451565E-2,-2.239388E-2,-8.5789494E-2,4.5548547E-2,3.432773E-2,1.0706149E-1,-1.9745383E-2,2.101846E-2,4.885785E-4,9.118202E-3,4.794598E-3,-2.7919207E-3,-1.05095515E-2,-4.027613E-3,-8.584593E-3,8.428576E-3,7.3366957E-3,1.9687542E-3,1.3204971E-2,-4.9712363E-4,8.769004E-3,-2.5849119E-3,4.5798286E-3,-4.0792255E-4],"categories":[],"categories_nodes":[],"categories_segments":[],"categories_sizes":[],"default_left":[0,0,0,0,0,0,0,0,0,0,0,0,0,0,0,0,0,0,0,0,0,0,0,0,0,0,0,0,0,0,0],"id":23,"left_children":[1,3,5,7,9,11,13,15,17,19,21,23,25,27,29,-1,-1,-1,-1,-1,-1,-1,-1,-1,-1,-1,-1,-1,-1,-1,-1],"loss_changes":[1.0469463E0,6.013807E-1,5.2519065E-1,4.9042284E-1,1.7077231E-1,3.0492723E-1,4.0229928E-1,3.7382895E-1,3.9426446E-1,1.2669075E-1,6.3223995E-2,2.7175248E-1,1.8542331E-1,2.6784837E-1,3.745804E-1,0E0,0E0,0E0,0E0,0E0,0E0,0E0,0E0,0E0,0E0,0E0,0E0,0E0,0E0,0E0,0E0],"parents":[2147483647,0,0,1,1,2,2,3,3,4,4,5,5,6,6,7,7,8,8,9,9,10,10,11,11,12,12,13,13,14,14],"right_children":[2,4,6,8,10,12,14,16,18,20,22,24,26,28,30,-1,-1,-1,-1,-1,-1,-1,-1,-1,-1,-1,-1,-1,-1,-1,-1],"split_conditions":[-3.996452E-2,1.4757337E-2,-1.9377282E-2,-1.854757E-2,6.353701E-2,3.6840572E-3,-3.3414155E-2,3.7477873E-2,2.6278362E-2,5.911753E-2,1.0167927E-1,-3.0640356E-2,7.825938E-2,-2.2016464E-2,6.552536E-2,4.885785E-4,9.118202E-3,4.794598E-3,-2.7919207E-3,-1.05095515E-2,-4.027613E-3,-8.584593E-3,8.428576E-3,7.3366957E-3,1.9687542E-3,1.3204971E-2,-4.9712363E-4,8.769004E-3,-2.5849119E-3,4.5798286E-3,-4.0792255E-4],"split_indices":[167,55,6,2,180,340,297,149,324,33,10,2,101,137,324,0,0,0,0,0,0,0,0,0,0,0,0,0,0,0,0],"split_type":[0,0,0,0,0,0,0,0,0,0,0,0,0,0,0,0,0,0,0,0,0,0,0,0,0,0,0,0,0,0,0],"sum_hessian":[3E3,1.453E3,1.547E3,1.295E3,1.58E2,5.42E2,1.005E3,2.85E2,1.01E3,1.48E2,1E1,4.77E2,6.5E1,4.04E2,6.01E2,2.21E2,6.4E1,7.3E1,9.37E2,1.03E2,4.5E1,2E0,8E0,1.29E2,3.48E2,5.3E1,1.2E1,2.1E1,3.83E2,3.02E2,2.99E2],"tree_param":{"num_deleted":"0","num_feature":"384","num_nodes":"31","size_leaf_vector":"1"}},{"base_weights":[7.5922515E-5,1.1133692E-2,-2.7600847E-2,2.5928816E-2,-1.2523325E-2,3.2654643E-2,-3.61491E-2,1.4999926E-2,5.102776E-2,9.158948E-4,-4.534124E-2,1.4500531E-2,1.3499987E-1,-4.120225E-2,6.2476702E-2,-6.7829364E-4,3.2490646E-3,3.303267E-3,8.857532E-3,-5.306851E-3,9.5388165E-4,-5.6605516E-3,6.3395873E-3,-1.5918555E-3,6.6860104E-3,2.3875974E-2,4.886798E-3,-1.5965885E-3,-5.7601077E-3,1.5083643E-2,-2.9171263E-3],"categories":[],"categories_nodes":[],"categories_segments":[],"categories_sizes":[],"default_left":[0,0,0,0,0,0,0,0,0,0,0,0,0,0,0,0,0,0,0,0,0,0,0,0,0,0,0,0,0,0,0],"id":24,"left_children":[1,3,5,7,9,11,13,15,17,19,21,23,25,27,29,-1,-1,-1,-1,-1,-1,-1,-1,-1,-1,-1,-1,-1,-1,-1,-1],"loss_changes":[9.187433E-1,7.510929E-1,4.426033E-1,3.6131525E-1,3.6434647E-1,1.9684702E-1,3.7685108E-1,3.5111946E-1,2.673428E-1,2.7375665E-1,2.9755133E-1,1.4759551E-1,1.3132483E-1,2.9498076E-1,3.0402562E-1,0E0,0E0,0E0,0E0,0E0,0E0,0E0,0E0,0E0,0E0,0E0,0E0,0E0,0E0,0E0,0E0],"parents":[2147483647,0,0,1,1,2,2,3,3,4,4,5,5,6,6,7,7,8,8,9,9,10,10,11,11,12,12,13,13,14,14],"right_children":[2,4,6,8,10,12,14,16,18,20,22,24,26,28,30,-1,-1,-1,-1,-1,-1,-1,-1,-1,-1,-1,-1,-1,-1,-1,-1],"split_conditions":[5.99698E-3,7.747203E-2,-3.6301937E-2,2.6549429E-2,3.3776026E-2,3.2462846E-2,8.746001E-2,-6.295085E-2,-3.4818877E-2,-4.5821086E-2,7.916281E-2,5.403379E-2,2.2553524E-2,3.2544706E-2,2.862272E-2,-6.7829364E-4,3.2490646E-3,3.303267E-3,8.857532E-3,-5.306851E-3,9.5388165E-4,-5.6605516E-3,6.3395873E-3,-1.5918555E-3,6.6860104E-3,2.3875974E-2,4.886798E-3,-1.5965885E-3,-5.7601077E-3,1.5083643E-2,-2.9171263E-3],"split_indices":[273,189,98,119,46,347,183,308,316,42,358,288,277,61,280,0,0,0,0,0,0,0,0,0,0,0,0,0,0,0,0],"split_type":[0,0,0,0,0,0,0,0,0,0,0,0,0,0,0,0,0,0,0,0,0,0,0,0,0,0,0,0,0,0,0],"sum_hessian":[3E3,2.144E3,8.56E2,1.319E3,8.25E2,1.06E2,7.5E2,9.2E2,3.99E2,5.86E2,2.39E2,9.1E1,1.5E1,7.14E2,3.6E1,4.1E2,5.1E2,2.71E2,1.28E2,8E1,5.06E2,2.17E2,2.2E1,5.8E1,3.3E1,6E0,9E0,2.82E2,4.32E2,1.8E1,1.8E1],"tree_param":{"num_deleted":"0","num_feature":"384","num_nodes":"31","size_leaf_vector":"1"}},{"base_weights":[8.4903186E-5,-1.9208867E-2,1.3495714E-2,2.2148482E-4,-3.715193E-2,-1.2569958E-2,2.460788E-2,-3.7210775E-3,1.4238629E-1,-1.5042196E-2,-5.8401663E-2,2.6636276E-2,-3.197201E-2,1.0821966E-3,3.912623E-2,8.888821E-3,-8.606229E-4,4.462451E-3,2.3457002E-2,-5.1309853E-3,4.1279336E-4,-7.176803E-3,-1.3489034E-3,7.092354E-4,1.080523E-2,-5.59163E-3,-1.4185952E-4,-1.8868372E-3,2.4489567E-3,5.1244753E-3,9.314647E-5],"categories":[],"categories_nodes":[],"categories_segments":[],"categories_sizes":[],"default_left":[0,0,0,0,0,0,0,0,0,0,0,0,0,0,0,0,0,0,0,0,0,0,0,0,0,0,0,0,0,0,0],"id":25,"left_children":[1,3,5,7,9,11,13,15,17,19,21,23,25,27,29,-1,-1,-1,-1,-1,-1,-1,-1,-1,-1,-1,-1,-1,-1,-1,-1],"loss_changes":[7.7675325E-1,4.2918408E-1,5.132725E-1,3.3234206E-1,2.998101E-1,4.040127E-1,4.24168E-1,2.618058E-1,1.3372514E-1,2.1921733E-1,1.9473588E-1,2.792828E-1,2.5963148E-1,2.222825E-1,3.554319E-1,0E0,0E0,0E0,0E0,0E0,0E0,0E0,0E0,0E0,0E0,0E0,0E0,0E0,0E0,0E0,0E0],"parents":[2147483647,0,0,1,1,2,2,3,3,4,4,5,5,6,6,7,7,8,8,9,9,10,10,11,11,12,12,13,13,14,14],"right_children":[2,4,6,8,10,12,14,16,18,20,22,24,26,28,30,-1,-1,-1,-1,-1,-1,-1,-1,-1,-1,-1,-1,-1,-1,-1,-1],"split_conditions":[-3.4932513E-2,-1.2450877E-2,-1.7988231E-2,1.0190507E-1,-3.585199E-2,3.9960525E-4,-9.304926E-3,-8.82304E-2,4.659158E-2,-1.3941434E-2,-1.9442001E-2,7.640225E-2,-4.2940542E-2,-4.140346E-2,8.865428E-2,8.888821E-3,-8.606229E-4,4.462451E-3,2.3457002E-2,-5.1309853E-3,4.1279336E-4,-7.176803E-3,-1.3489034E-3,7.092354E-4,1.080523E-2,-5.59163E-3,-1.4185952E-4,-1.8868372E-3,2.4489567E-3,5.1244753E-3,9.314647E-5],"split_indices":[95,113,328,349,235,218,119,15,249,37,152,307,141,263,324,0,0,0,0,0,0,0,0,0,0,0,0,0,0,0,0],"split_type":[0,0,0,0,0,0,0,0,0,0,0,0,0,0,0,0,0,0,0,0,0,0,0,0,0,0,0,0,0,0,0],"sum_hessian":[3E3,1.23E3,1.77E3,5.91E2,6.39E2,5.29E2,1.241E3,5.76E2,1.5E1,3.14E2,3.25E2,1.75E2,3.54E2,4.74E2,7.67E2,2.8E1,5.48E2,8E0,7E0,1.08E2,2.06E2,2.5E2,7.5E1,1.42E2,3.3E1,1.98E2,1.56E2,2.56E2,2.18E2,5.82E2,1.85E2],"tree_param":{"num_deleted":"0","num_feature":"384","num_nodes":"31","size_leaf_vector":"1"}},{"base_weights":[8.783492E-5,2.3397896E-2,-9.766508E-3,-1.7548285E-2,3.603169E-2,-6.502052E-4,-4.0722597E-2,-1.2923433E-1,-3.8640138E-3,3.1079741E-2,1.2949587E-1,1.3715431E-2,-2.0609707E-2,-3.7783638E-2,-1.9033004E-2,2.238712E-3,-1.53096905E-2,7.743388E-4,-1.217591E-2,1.561844E-3,6.1366237E-3,6.5478827E-3,1.8966122E-2,4.831752E-4,5.353568E-3,2.7699396E-2,-2.1890472E-3,-1.053414E-2,-3.1112616E-3],"categories":[],"categories_nodes":[],"categories_segments":[],"categories_sizes":[],"default_left":[0,0,0,0,0,0,0,0,0,0,0,0,0,0,0,0,0,0,0,0,0,0,0,0,0,0,0,0,0],"id":26,"left_children":[1,3,5,7,9,11,13,15,17,19,21,23,25,27,-1,-1,-1,-1,-1,-1,-1,-1,-1,-1,-1,-1,-1,-1,-1],"loss_changes":[6.8957424E-1,4.6206892E-1,5.954262E-1,3.219808E-1,3.1162512E-1,4.6794084E-1,2.0385998E-1,8.664319E-2,2.5958094E-1,3.0294782E-1,1.18535936E-1,3.354504E-1,2.6639616E-1,2.0944315E-1,0E0,0E0,0E0,0E0,0E0,0E0,0E0,0E0,0E0,0E0,0E0,0E0,0E0,0E0,0E0],"parents":[2147483647,0,0,1,1,2,2,3,3,4,4,5,5,6,6,7,7,8,8,9,9,10,10,11,11,12,12,13,13],"right_children":[2,4,6,8,10,12,14,16,18,20,22,24,26,28,-1,-1,-1,-1,-1,-1,-1,-1,-1,-1,-1,-1,-1,-1,-1],"split_conditions":[-1.9785687E-2,-3.9970916E-2,1.8102659E-2,-7.335313E-2,9.496065E-2,7.863173E-2,1.15705825E-1,-1.0334609E-1,3.9791286E-2,4.2140387E-2,-5.3569265E-3,-5.883663E-3,-2.932116E-2,-7.2977856E-2,-1.9033004E-2,2.238712E-3,-1.53096905E-2,7.743388E-4,-1.217591E-2,1.561844E-3,6.1366237E-3,6.5478827E-3,1.8966122E-2,4.831752E-4,5.353568E-3,2.7699396E-2,-2.1890472E-3,-1.053414E-2,-3.1112616E-3],"split_indices":[74,66,273,95,349,189,61,124,318,163,45,44,324,153,0,0,0,0,0,0,0,0,0,0,0,0,0,0,0],"split_type":[0,0,0,0,0,0,0,0,0,0,0,0,0,0,0,0,0,0,0,0,0,0,0,0,0,0,0,0,0],"sum_hessian":[3E3,8.91E2,2.109E3,2.1E2,6.81E2,1.63E3,4.79E2,2.2E1,1.88E2,6.48E2,3.3E1,9.48E2,6.82E2,4.71E2,8E0,3E0,1.9E1,1.72E2,1.6E1,4.3E2,2.18E2,1.7E1,1.6E1,7.76E2,1.72E2,2E0,6.8E2,4.1E1,4.3E2],"tree_param":{"num_deleted":"0","num_feature":"384","num_nodes":"29","size_leaf_vector":"1"}},{"base_weights":[8.1526545E-5,9.558763E-3,-2.2300975E-2,-2.5076792E-2,1.5654236E-2,9.97516E-3,-3.2803126E-2,-4.6629105E-2,5.319076E-3,-5.6482092E-3,2.793899E-2,6.4175665E-2,-1.4694645E-2,-3.5787307E-2,6.656907E-2,3.3772097E-3,-5.549733E-3,6.07985E-3,-2.6073055E-3,-1.1984918E-2,-1.5029011E-4,3.2481258E-3,-3.5071746E-3,3.6719479E-3,1.796239E-2,-5.5001085E-3,1.687775E-3,-6.9982833E-3,-2.7590285E-3,1.0095623E-2,-5.6783655E-3],"categories":[],"categories_nodes":[],"categories_segments":[],"categories_sizes":[],"default_left":[0,0,0,0,0,0,0,0,0,0,0,0,0,0,0,0,0,0,0,0,0,0,0,0,0,0,0,0,0,0,0],"id":27,"left_children":[1,3,5,7,9,11,13,15,17,19,21,23,25,27,29,-1,-1,-1,-1,-1,-1,-1,-1,-1,-1,-1,-1,-1,-1,-1,-1],"loss_changes":[6.367981E-1,4.4564474E-1,3.0302632E-1,2.0726001E-1,4.696392E-1,2.9510853E-1,2.0225364E-1,1.3378221E-1,2.3147866E-1,3.108425E-1,3.2684797E-1,2.1211836E-1,1.9435903E-1,1.8166661E-1,9.0567656E-2,0E0,0E0,0E0,0E0,0E0,0E0,0E0,0E0,0E0,0E0,0E0,0E0,0E0,0E0,0E0,0E0],"parents":[2147483647,0,0,1,1,2,2,3,3,4,4,5,5,6,6,7,7,8,8,9,9,10,10,11,11,12,12,13,13,14,14],"right_children":[2,4,6,8,10,12,14,16,18,20,22,24,26,28,30,-1,-1,-1,-1,-1,-1,-1,-1,-1,-1,-1,-1,-1,-1,-1,-1],"split_conditions":[2.913524E-2,-6.0955077E-2,-1.7270105E-2,-2.1271216E-2,-4.785958E-3,3.9103255E-2,1.4331028E-2,-6.569683E-2,-3.1207263E-2,-6.644423E-2,1.367188E-1,1.0985519E-2,-5.899518E-3,3.7825297E-4,3.3077363E-2,3.3772097E-3,-5.549733E-3,6.07985E-3,-2.6073055E-3,-1.1984918E-2,-1.5029011E-4,3.2481258E-3,-3.5071746E-3,3.6719479E-3,1.796239E-2,-5.5001085E-3,1.687775E-3,-6.9982833E-3,-2.7590285E-3,1.0095623E-2,-5.6783655E-3],"split_indices":[46,297,74,39,27,151,118,262,17,78,70,342,332,123,59,0,0,0,0,0,0,0,0,0,0,0,0,0,0,0,0],"split_type":[0,0,0,0,0,0,0,0,0,0,0,0,0,0,0,0,0,0,0,0,0,0,0,0,0,0,0,0,0,0,0],"sum_hessian":[3E3,2.108E3,8.92E2,3.15E2,1.793E3,2.19E2,6.73E2,1.84E2,1.31E2,6.56E2,1.137E3,6.8E1,1.51E2,6.54E2,1.9E1,1.8E1,1.66E2,4.7E1,8.4E1,2.2E1,6.34E2,1.061E3,7.6E1,5.6E1,1.2E1,6.6E1,8.5E1,1.25E2,5.29E2,1.5E1,4E0],"tree_param":{"num_deleted":"0","num_feature":"384","num_nodes":"31","size_leaf_vector":"1"}},{"base_weights":[7.3825795E-5,-1.358376E-2,1.3731362E-2,1.1228278E-1,-1.5359326E-2,4.088155E-2,2.8989483E-3,1.531608E-1,-1.5439029E-2,1.5237543E-2,-2.1675486E-2,-3.6273032E-2,4.892912E-2,-6.261545E-3,3.808364E-2,9.381825E-3,2.0077607E-2,1.6620032E-3,-5.3038104E-3,1.0796636E-2,4.642841E-4,-1.6898183E-3,-6.605474E-3,-5.9026275E-3,6.496239E-3,-5.403344E-4,5.9879627E-3,-3.6293657E-3,3.0524866E-4,4.451866E-3,-1.1915832E-2],"categories":[],"categories_nodes":[],"categories_segments":[],"categories_sizes":[],"default_left":[0,0,0,0,0,0,0,0,0,0,0,0,0,0,0,0,0,0,0,0,0,0,0,0,0,0,0,0,0,0,0],"id":28,"left_children":[1,3,5,7,9,11,13,15,17,19,21,23,25,27,29,-1,-1,-1,-1,-1,-1,-1,-1,-1,-1,-1,-1,-1,-1,-1,-1],"loss_changes":[5.5996E-1,3.3717468E-1,4.413288E-1,1.1200592E-1,2.865405E-1,2.6752287E-1,3.4639844E-1,2.6373327E-2,8.113841E-3,2.49037E-1,2.5923592E-1,9.827529E-2,2.3117107E-1,2.3871197E-1,2.299366E-1,0E0,0E0,0E0,0E0,0E0,0E0,0E0,0E0,0E0,0E0,0E0,0E0,0E0,0E0,0E0,0E0],"parents":[2147483647,0,0,1,1,2,2,3,3,4,4,5,5,6,6,7,7,8,8,9,9,10,10,11,11,12,12,13,13,14,14],"right_children":[2,4,6,8,10,12,14,16,18,20,22,24,26,28,30,-1,-1,-1,-1,-1,-1,-1,-1,-1,-1,-1,-1,-1,-1,-1,-1],"split_conditions":[-3.3194765E-2,-7.1235737E-3,-3.3017587E-2,2.3058496E-2,2.3990711E-2,-6.310509E-2,7.7118516E-2,1.36715425E-2,2.6111133E-2,-2.1937639E-3,1.578229E-2,-1.3444225E-3,-5.6965694E-2,2.3888906E-2,1.3079599E-1,9.381825E-3,2.0077607E-2,1.6620032E-3,-5.3038104E-3,1.0796636E-2,4.642841E-4,-1.6898183E-3,-6.605474E-3,-5.9026275E-3,6.496239E-3,-5.403344E-4,5.9879627E-3,-3.6293657E-3,3.0524866E-4,4.451866E-3,-1.1915832E-2],"split_indices":[209,324,198,53,101,297,183,58,0,58,55,178,121,162,132,0,0,0,0,0,0,0,0,0,0,0,0,0,0,0,0],"split_type":[0,0,0,0,0,0,0,0,0,0,0,0,0,0,0,0,0,0,0,0,0,0,0,0,0,0,0,0,0,0,0],"sum_hessian":[3E3,1.5E3,1.5E3,2E1,1.48E3,4.27E2,1.073E3,1.5E1,5E0,2.53E2,1.227E3,4E1,3.87E2,8.52E2,2.21E2,8E0,7E0,3E0,2E0,2.5E1,2.28E2,1.109E3,1.18E2,3.3E1,7E0,6.5E1,3.22E2,2.01E2,6.51E2,2.13E2,8E0],"tree_param":{"num_deleted":"0","num_feature":"384","num_nodes":"31","size_leaf_vector":"1"}},{"base_weights":[7.445388E-5,1.0769932E-2,-1.578747E-2,-3.265636E-2,1.5666218E-2,2.9568728E-3,-3.3133682E-2,-1.428496E-2,-1.0189839E-1,2.7335418E-2,-2.9022796E-3,-1.723552E-2,3.3713434E-2,-1.9045556E-2,-5.99173E-2,5.4254397E-3,-3.5767776E-3,3.172829E-3,-1.33095635E-2,1.1390131E-2,2.3760414E-3,-7.9435384E-4,7.95189E-3,-1.9275807E-4,-5.8627236E-3,-1.9206567E-3,5.7798005E-3,2.3644823E-3,-3.067755E-3,-7.314975E-3,1.3422221E-5],"categories":[],"categories_nodes":[],"categories_segments":[],"categories_sizes":[],"default_left":[0,0,0,0,0,0,0,0,0,0,0,0,0,0,0,0,0,0,0,0,0,0,0,0,0,0,0,0,0,0,0],"id":29,"left_children":[1,3,5,7,9,11,13,15,17,19,21,23,25,27,29,-1,-1,-1,-1,-1,-1,-1,-1,-1,-1,-1,-1,-1,-1,-1,-1],"loss_changes":[5.0929224E-1,3.8175285E-1,3.9319625E-1,2.3006167E-1,3.4936672E-1,3.620313E-1,2.3582268E-1,2.1544123E-1,1.6263679E-1,3.0367243E-1,2.5949222E-1,2.2292191E-1,2.955324E-1,2.058105E-1,1.7164958E-1,0E0,0E0,0E0,0E0,0E0,0E0,0E0,0E0,0E0,0E0,0E0,0E0,0E0,0E0,0E0,0E0],"parents":[2147483647,0,0,1,1,2,2,3,3,4,4,5,5,6,6,7,7,8,8,9,9,10,10,11,11,12,12,13,13,14,14],"right_children":[2,4,6,8,10,12,14,16,18,20,22,24,26,28,30,-1,-1,-1,-1,-1,-1,-1,-1,-1,-1,-1,-1,-1,-1,-1,-1],"split_conditions":[-5.98109E-2,-4.703098E-2,4.553743E-2,3.9877683E-2,7.2353266E-2,5.7251498E-2,6.8259105E-2,-2.5554199E-2,-6.2526055E-2,-7.103406E-2,2.0737194E-2,4.7236327E-2,-2.4687592E-2,-1.5662737E-2,1.4571979E-3,5.4254397E-3,-3.5767776E-3,3.172829E-3,-1.33095635E-2,1.1390131E-2,2.3760414E-3,-7.9435384E-4,7.95189E-3,-1.9275807E-4,-5.8627236E-3,-1.9206567E-3,5.7798005E-3,2.3644823E-3,-3.067755E-3,-7.314975E-3,1.3422221E-5],"split_indices":[24,42,25,100,136,160,143,74,350,184,203,327,153,129,79,0,0,0,0,0,0,0,0,0,0,0,0,0,0,0,0],"split_type":[0,0,0,0,0,0,0,0,0,0,0,0,0,0,0,0,0,0,0,0,0,0,0,0,0,0,0,0,0,0,0],"sum_hessian":[3E3,1.792E3,1.208E3,1.81E2,1.611E3,5.81E2,6.27E2,1.44E2,3.7E1,9.89E2,6.22E2,3.51E2,2.3E2,4.12E2,2.15E2,3.4E1,1.1E2,7E0,3E1,3.8E1,9.51E2,5.87E2,3.5E1,2.57E2,9.4E1,7.2E1,1.58E2,8.8E1,3.24E2,1.76E2,3.9E1],"tree_param":{"num_deleted":"0","num_feature":"384","num_nodes":"31","size_leaf_vector":"1"}},{"base_weights":[6.7824825E-5,-1.7479561E-2,8.342588E-3,-6.082857E-2,-1.0329688E-2,3.227082E-2,1.5651184E-4,-8.257521E-2,-8.425996E-3,2.5831945E-2,-2.1378627E-2,2.316723E-2,8.8593595E-2,-1.9012146E-2,1.2057652E-2,-1.0403216E-2,-1.7476165E-3,1.0393237E-2,-3.8813853E-3,1.0913817E-2,-7.9794954E-5,-6.1526865E-4,-4.8650894E-3,2.8316786E-3,-4.9698795E-3,1.2626561E-2,-2.3137059E-3,-9.411576E-3,-1.4334809E-3,3.704831E-3,-1.0445204E-4],"categories":[],"categories_nodes":[],"categories_segments":[],"categories_sizes":[],"default_left":[0,0,0,0,0,0,0,0,0,0,0,0,0,0,0,0,0,0,0,0,0,0,0,0,0,0,0,0,0,0,0],"id":30,"left_children":[1,3,5,7,9,11,13,15,17,19,21,23,25,27,29,-1,-1,-1,-1,-1,-1,-1,-1,-1,-1,-1,-1,-1,-1,-1,-1],"loss_changes":[4.358924E-1,2.9753387E-1,3.995867E-1,1.542871E-1,3.3097818E-1,2.645719E-1,3.4721327E-1,1.3227731E-1,1.4402151E-1,4.3046367E-1,2.629665E-1,1.6988453E-1,3.05978E-1,2.0344993E-1,3.0749726E-1,0E0,0E0,0E0,0E0,0E0,0E0,0E0,0E0,0E0,0E0,0E0,0E0,0E0,0E0,0E0,0E0],"parents":[2147483647,0,0,1,1,2,2,3,3,4,4,5,5,6,6,7,7,8,8,9,9,10,10,11,11,12,12,13,13,14,14],"right_children":[2,4,6,8,10,12,14,16,18,20,22,24,26,28,30,-1,-1,-1,-1,-1,-1,-1,-1,-1,-1,-1,-1,-1,-1,-1,-1],"split_conditions":[-1.7624628E-2,-1.0464433E-1,-3.350458E-2,2.997222E-2,-1.8358973E-3,1.804049E-2,-3.3097006E-2,4.0379945E-2,-4.1549046E-2,-2.656743E-2,-2.0376325E-2,3.2075174E-2,-3.7931334E-2,-1.233781E-1,-1.9254047E-2,-1.0403216E-2,-1.7476165E-3,1.0393237E-2,-3.8813853E-3,1.0913817E-2,-7.9794954E-5,-6.1526865E-4,-4.8650894E-3,2.8316786E-3,-4.9698795E-3,1.2626561E-2,-2.3137059E-3,-9.411576E-3,-1.4334809E-3,3.704831E-3,-1.0445204E-4],"split_indices":[328,118,11,244,292,344,297,150,347,74,282,100,122,305,276,0,0,0,0,0,0,0,0,0,0,0,0,0,0,0,0],"split_type":[0,0,0,0,0,0,0,0,0,0,0,0,0,0,0,0,0,0,0,0,0,0,0,0,0,0,0,0,0,0,0],"sum_hessian":[3E3,9.61E2,2.039E3,1.35E2,8.26E2,5.19E2,1.52E3,9.5E1,4E1,1.93E2,6.33E2,4.48E2,7.1E1,5.82E2,9.38E2,7.1E1,2.4E1,8E0,3.2E1,4.6E1,1.47E2,4.07E2,2.26E2,4.19E2,2.9E1,5.3E1,1.8E1,3.3E1,5.49E2,3.22E2,6.16E2],"tree_param":{"num_deleted":"0","num_feature":"384","num_nodes":"31","size_leaf_vector":"1"}},{"base_weights":[6.125015E-5,4.0890988E-2,-3.2151416E-3,5.195845E-2,-6.258711E-2,6.481293E-3,-1.7562306E-2,1.5359032E-1,4.1789085E-2,4.4401884E-3,-8.7999865E-2,3.5427753E-3,6.937329E-2,-3.31497E-2,-3.1726104E-3,1.9770108E-2,-5.022261E-3,7.764635E-3,1.8254847E-3,-4.3348968E-4,2.8545351E-3,-5.35004E-3,-1.1581178E-2,-1.6094532E-3,1.2336913E-3,2.2514507E-3,1.1084876E-2,-3.6455125E-3,1.1477597E-2,-7.104984E-4,1.2087341E-2],"categories":[],"categories_nodes":[],"categories_segments":[],"categories_sizes":[],"default_left":[0,0,0,0,0,0,0,0,0,0,0,0,0,0,0,0,0,0,0,0,0,0,0,0,0,0,0,0,0,0,0],"id":31,"left_children":[1,3,5,7,9,11,13,15,17,19,21,23,25,27,29,-1,-1,-1,-1,-1,-1,-1,-1,-1,-1,-1,-1,-1,-1,-1,-1],"loss_changes":[4.015879E-1,2.5864044E-1,3.867181E-1,2.0235491E-1,3.7864394E-2,3.0635276E-1,2.5133267E-1,1.7175516E-1,1.5469918E-1,1.6044151E-3,9.155951E-3,2.7409E-1,1.4132252E-1,2.672431E-1,2.857313E-1,0E0,0E0,0E0,0E0,0E0,0E0,0E0,0E0,0E0,0E0,0E0,0E0,0E0,0E0,0E0,0E0],"parents":[2147483647,0,0,1,1,2,2,3,3,4,4,5,5,6,6,7,7,8,8,9,9,10,10,11,11,12,12,13,13,14,14],"right_children":[2,4,6,8,10,12,14,16,18,20,22,24,26,28,30,-1,-1,-1,-1,-1,-1,-1,-1,-1,-1,-1,-1,-1,-1,-1,-1],"split_conditions":[-4.63582E-2,7.69466E-2,-5.98109E-2,-6.514873E-2,-2.4714757E-2,3.9902892E-2,-3.1195378E-2,6.333504E-2,3.457991E-2,1.3786098E-1,-1.4748473E-2,-1.9878613E-2,-4.897616E-6,4.414021E-2,9.74522E-2,1.9770108E-2,-5.022261E-3,7.764635E-3,1.8254847E-3,-4.3348968E-4,2.8545351E-3,-5.35004E-3,-1.1581178E-2,-1.6094532E-3,1.2336913E-3,2.2514507E-3,1.1084876E-2,-3.6455125E-3,1.1477597E-2,-7.104984E-4,1.2087341E-2],"split_indices":[46,161,24,331,274,66,79,200,257,1,2,328,212,262,349,0,0,0,0,0,0,0,0,0,0,0,0,0,0,0,0],"split_type":[0,0,0,0,0,0,0,0,0,0,0,0,0,0,0,0,0,0,0,0,0,0,0,0,0,0,0,0,0,0,0],"sum_hessian":[3E3,2.22E2,2.778E3,2.01E2,2.1E1,1.658E3,1.12E3,1.7E1,1.84E2,6E0,1.5E1,1.585E3,7.3E1,5.37E2,5.83E2,1.4E1,3E0,7.2E1,1.12E2,5E0,1E0,8E0,7E0,4.9E2,1.095E3,3.5E1,3.8E1,5.26E2,1.1E1,5.66E2,1.7E1],"tree_param":{"num_deleted":"0","num_feature":"384","num_nodes":"31","size_leaf_vector":"1"}},{"base_weights":[6.9115384E-5,-1.1003185E-2,1.114137E-2,-1.6325716E-2,2.0062666E-2,1.587936E-2,-3.22801E-2,-6.9351457E-3,-3.794488E-2,1.3670696E-2,1.683999E-2,-5.9832246E-3,2.762395E-2,-4.2150218E-2,1.0814253E-1,-2.6573136E-3,4.471969E-4,-3.058508E-3,-9.784737E-3,-2.3079745E-3,4.668966E-3,-1.2244647E-3,6.416969E-3,-9.299607E-4,3.948443E-3,-9.1635634E-4,-9.236323E-3,1.3547453E-2,-7.903377E-5],"categories":[],"categories_nodes":[],"categories_segments":[],"categories_sizes":[],"default_left":[0,0,0,0,0,0,0,0,0,0,0,0,0,0,0,0,0,0,0,0,0,0,0,0,0,0,0,0,0],"id":32,"left_children":[1,3,5,7,9,11,13,15,17,19,-1,21,23,25,27,-1,-1,-1,-1,-1,-1,-1,-1,-1,-1,-1,-1,-1,-1],"loss_changes":[3.680312E-1,2.485163E-1,3.0931395E-1,2.600037E-1,2.0629466E-1,3.4782794E-1,2.0968442E-1,2.0061028E-1,1.6806495E-1,2.583314E-1,0E0,2.0899357E-1,3.8618445E-1,2.2938755E-1,2.9880613E-2,0E0,0E0,0E0,0E0,0E0,0E0,0E0,0E0,0E0,0E0,0E0,0E0,0E0,0E0],"parents":[2147483647,0,0,1,1,2,2,3,3,4,4,5,5,6,6,7,7,8,8,9,9,11,11,12,12,13,13,14,14],"right_children":[2,4,6,8,10,12,14,16,18,20,-1,22,24,26,28,-1,-1,-1,-1,-1,-1,-1,-1,-1,-1,-1,-1,-1,-1],"split_conditions":[-3.3194765E-2,4.6369232E-2,4.0418714E-2,1.9533455E-3,5.0290406E-2,-8.489564E-3,4.2300136E-3,-7.3440805E-2,3.453484E-2,-2.4445176E-2,1.683999E-2,3.70729E-2,2.509712E-2,-1.3766929E-2,7.895788E-3,-2.6573136E-3,4.471969E-4,-3.058508E-3,-9.784737E-3,-2.3079745E-3,4.668966E-3,-1.2244647E-3,6.416969E-3,-9.299607E-4,3.948443E-3,-9.1635634E-4,-9.236323E-3,1.3547453E-2,-7.903377E-5],"split_indices":[209,92,129,20,100,119,248,182,314,278,0,301,307,270,11,0,0,0,0,0,0,0,0,0,0,0,0,0,0],"split_type":[0,0,0,0,0,0,0,0,0,0,0,0,0,0,0,0,0,0,0,0,0,0,0,0,0,0,0,0,0],"sum_hessian":[3E3,1.5E3,1.5E3,1.281E3,2.19E2,1.353E3,1.47E2,8.94E2,3.87E2,2.11E2,8E0,4.73E2,8.8E2,1.38E2,9E0,3.28E2,5.66E2,3.46E2,4.1E1,1E2,1.11E2,4.35E2,3.8E1,2.14E2,6.66E2,8.4E1,5.4E1,7E0,2E0],"tree_param":{"num_deleted":"0","num_feature":"384","num_nodes":"29","size_leaf_vector":"1"}},{"base_weights":[6.742259E-5,-1.0919389E-2,1.0387033E-2,-3.1548736E-3,-3.7989598E-2,-9.103525E-3,2.3003377E-2,-6.111237E-3,6.832784E-2,-7.614463E-2,-1.882493E-2,2.9500788E-3,-3.8306072E-2,-2.1984516E-2,3.2469284E-2,2.7991648E-4,-3.2819975E-3,1.1302212E-2,-8.0092875E-3,-2.2676715E-3,-1.036888E-2,7.7710333E-3,-3.179937E-3,5.0085494E-3,-8.571359E-4,-4.5660674E-4,-6.2829712E-3,-2.7205949E-3,1.4949818E-2,4.1347747E-3,3.2163638E-4],"categories":[],"categories_nodes":[],"categories_segments":[],"categories_sizes":[],"default_left":[0,0,0,0,0,0,0,0,0,0,0,0,0,0,0,0,0,0,0,0,0,0,0,0,0,0,0,0,0,0,0],"id":33,"left_children":[1,3,5,7,9,11,13,15,17,19,21,23,25,27,29,-1,-1,-1,-1,-1,-1,-1,-1,-1,-1,-1,-1,-1,-1,-1,-1],"loss_changes":[3.4036565E-1,3.0549216E-1,3.8086194E-1,2.3943053E-1,2.3548457E-1,2.1447854E-1,4.0101403E-1,2.587822E-1,3.0756235E-1,1.5670341E-1,2.742616E-1,2.3503458E-1,1.4699522E-1,1.5091038E-1,2.0167011E-1,0E0,0E0,0E0,0E0,0E0,0E0,0E0,0E0,0E0,0E0,0E0,0E0,0E0,0E0,0E0,0E0],"parents":[2147483647,0,0,1,1,2,2,3,3,4,4,5,5,6,6,7,7,8,8,9,9,10,10,11,11,12,12,13,13,14,14],"right_children":[2,4,6,8,10,12,14,16,18,20,22,24,26,28,30,-1,-1,-1,-1,-1,-1,-1,-1,-1,-1,-1,-1,-1,-1,-1,-1],"split_conditions":[-3.996452E-2,5.5476166E-2,-9.304926E-3,1.0190507E-1,-2.4218692E-2,1.0663323E-2,-7.006761E-2,-1.7585486E-2,2.188854E-2,-3.8036533E-2,-3.9346367E-2,-2.5426263E-2,-4.3291654E-3,1.22352086E-1,3.1184055E-2,2.7991648E-4,-3.2819975E-3,1.1302212E-2,-8.0092875E-3,-2.2676715E-3,-1.036888E-2,7.7710333E-3,-3.179937E-3,5.0085494E-3,-8.571359E-4,-4.5660674E-4,-6.2829712E-3,-2.7205949E-3,1.4949818E-2,4.1347747E-3,3.2163638E-4],"split_indices":[167,275,119,349,309,11,44,175,113,313,113,158,353,188,318,0,0,0,0,0,0,0,0,0,0,0,0,0,0,0,0],"split_type":[0,0,0,0,0,0,0,0,0,0,0,0,0,0,0,0,0,0,0,0,0,0,0,0,0,0,0,0,0,0,0],"sum_hessian":[3E3,1.453E3,1.547E3,1.13E3,3.23E2,6.08E2,9.39E2,1.086E3,4.4E1,1.07E2,2.16E2,4.31E2,1.77E2,1.63E2,7.76E2,8.15E2,2.71E2,3.4E1,1E1,3.7E1,7E1,2.5E1,1.91E2,8.4E1,3.47E2,7.5E1,1.02E2,1.59E2,4E0,5.95E2,1.81E2],"tree_param":{"num_deleted":"0","num_feature":"384","num_nodes":"31","size_leaf_vector":"1"}},{"base_weights":[6.279556E-5,3.0494616E-3,-3.679958E-2,-7.3283375E-3,1.3276721E-2,-6.8569E-2,-1.0369902E-2,8.71645E-2,-9.208588E-3,-1.27933165E-2,2.061765E-2,-2.8846169E-2,-1.01989485E-1,-8.617282E-2,1.2636916E-2,-1.7174588E-3,1.177935E-2,-2.3243455E-3,2.8725056E-4,-2.218812E-3,6.893024E-3,3.1227437E-3,-3.6587918E-4,7.0415175E-4,-1.2600851E-2,-1.845763E-2,-7.7147866E-3,-1.1775381E-3,-1.190629E-2,-7.912138E-3,2.6687165E-3],"categories":[],"categories_nodes":[],"categories_segments":[],"categories_sizes":[],"default_left":[0,0,0,0,0,0,0,0,0,0,0,0,0,0,0,0,0,0,0,0,0,0,0,0,0,0,0,0,0,0,0],"id":34,"left_children":[1,3,5,7,9,11,13,15,17,19,21,23,25,27,29,-1,-1,-1,-1,-1,-1,-1,-1,-1,-1,-1,-1,-1,-1,-1,-1],"loss_changes":[3.3050913E-1,2.9483822E-1,1.8821141E-1,2.4580976E-1,2.68002E-1,1.3246879E-1,2.1734296E-1,8.830972E-2,2.2947675E-1,2.3800465E-1,2.8137833E-1,1.6826001E-1,9.8597765E-2,6.955916E-2,1.2587728E-1,0E0,0E0,0E0,0E0,0E0,0E0,0E0,0E0,0E0,0E0,0E0,0E0,0E0,0E0,0E0,0E0],"parents":[2147483647,0,0,1,1,2,2,3,3,4,4,5,5,6,6,7,7,8,8,9,9,10,10,11,11,12,12,13,13,14,14],"right_children":[2,4,6,8,10,12,14,16,18,20,22,24,26,28,30,-1,-1,-1,-1,-1,-1,-1,-1,-1,-1,-1,-1,-1,-1,-1,-1],"split_conditions":[6.285077E-2,-3.3194765E-2,-1.832144E-2,1.9780984E-3,-3.7327036E-2,9.0256706E-2,-4.353854E-2,-8.0114014E-2,-8.910569E-3,5.3477313E-2,-3.7483614E-2,-3.6313422E-2,-3.9966255E-2,-3.0135661E-2,1.0300048E-2,-1.7174588E-3,1.177935E-2,-2.3243455E-3,2.8725056E-4,-2.218812E-3,6.893024E-3,3.1227437E-3,-3.6587918E-4,7.0415175E-4,-1.2600851E-2,-1.845763E-2,-7.7147866E-3,-1.1775381E-3,-1.190629E-2,-7.912138E-3,2.6687165E-3],"split_indices":[46,209,180,324,203,240,66,338,91,119,291,289,214,379,217,0,0,0,0,0,0,0,0,0,0,0,0,0,0,0,0],"split_type":[0,0,0,0,0,0,0,0,0,0,0,0,0,0,0,0,0,0,0,0,0,0,0,0,0,0,0,0,0,0,0],"sum_hessian":[3E3,2.776E3,2.24E2,1.378E3,1.398E3,1.01E2,1.23E2,2.6E1,1.352E3,3.07E2,1.091E3,4.7E1,5.4E1,2.8E1,9.5E1,6E0,2E1,6.25E2,7.27E2,2.76E2,3.1E1,7.59E2,3.32E2,3.5E1,1.2E1,1.1E1,4.3E1,9E0,1.9E1,1.2E1,8.3E1],"tree_param":{"num_deleted":"0","num_feature":"384","num_nodes":"31","size_leaf_vector":"1"}},{"base_weights":[4.286981E-5,-7.10491E-3,1.4140231E-2,1.44256065E-2,-1.4119446E-2,3.714191E-2,4.643531E-3,4.652768E-2,-4.694865E-3,2.1012424E-2,-1.4858005E-2,5.186238E-2,-1.0030587E-2,7.242479E-2,5.256683E-4,2.4378418E-3,9.506152E-3,2.0749375E-2,-8.169366E-4,-5.0893244E-3,-1.0753884E-3,1.066656E-2,3.9436463E-3,4.7312584E-3,-3.3445803E-3,-2.240059E-3,1.0373623E-2,-5.4513843E-4,4.849447E-3],"categories":[],"categories_nodes":[],"categories_segments":[],"categories_sizes":[],"default_left":[0,0,0,0,0,0,0,0,0,0,0,0,0,0,0,0,0,0,0,0,0,0,0,0,0,0,0,0,0],"id":35,"left_children":[1,3,5,7,9,11,13,15,17,-1,19,21,23,25,27,-1,-1,-1,-1,-1,-1,-1,-1,-1,-1,-1,-1,-1,-1],"loss_changes":[3.0249572E-1,3.0104864E-1,2.2045198E-1,3.0098376E-1,2.5204447E-1,2.0536858E-1,1.9980754E-1,1.9440544E-1,2.2876793E-1,0E0,2.2114426E-1,1.4901406E-1,9.691431E-2,1.2405762E-1,1.9408172E-1,0E0,0E0,0E0,0E0,0E0,0E0,0E0,0E0,0E0,0E0,0E0,0E0,0E0,0E0],"parents":[2147483647,0,0,1,1,2,2,3,3,4,4,5,5,6,6,7,7,8,8,10,10,11,11,12,12,13,13,14,14],"right_children":[2,4,6,8,10,12,14,16,18,-1,20,22,24,26,28,-1,-1,-1,-1,-1,-1,-1,-1,-1,-1,-1,-1,-1,-1],"split_conditions":[-3.5577476E-2,-3.205228E-2,-1.3586117E-2,7.049124E-3,-2.932116E-2,1.7507132E-2,-6.6068076E-2,5.853593E-3,-8.7205335E-2,2.1012424E-2,-5.593763E-2,9.592417E-3,8.870363E-3,-7.406418E-2,2.274588E-2,2.4378418E-3,9.506152E-3,2.0749375E-2,-8.169366E-4,-5.0893244E-3,-1.0753884E-3,1.066656E-2,3.9436463E-3,4.7312584E-3,-3.3445803E-3,-2.240059E-3,1.0373623E-2,-5.4513843E-4,4.849447E-3],"split_indices":[54,11,2,164,324,276,269,153,31,0,369,140,59,81,367,0,0,0,0,0,0,0,0,0,0,0,0,0,0],"split_type":[0,0,0,0,0,0,0,0,0,0,0,0,0,0,0,0,0,0,0,0,0,0,0,0,0,0,0,0,0],"sum_hessian":[3E3,1.991E3,1.009E3,4.89E2,1.502E3,2.94E2,7.15E2,1.82E2,3.07E2,4E0,1.498E3,2.24E2,7E1,4E1,6.75E2,1.26E2,5.6E1,4E0,3.03E2,1.52E2,1.346E3,4E1,1.84E2,2E1,5E1,1E1,3E1,6.01E2,7.4E1],"tree_param":{"num_deleted":"0","num_feature":"384","num_nodes":"29","size_leaf_vector":"1"}},{"base_weights":[6.363034E-5,1.1349499E-2,-8.440361E-3,1.5727973E-2,-4.5174807E-2,3.4811832E-2,-1.1751693E-2,2.313973E-2,-2.0075925E-2,5.974234E-2,-6.9429204E-2,-7.296364E-2,4.6149615E-2,-2.2821845E-2,3.521819E-4,6.5060942E-3,1.4153952E-3,4.1104564E-3,-3.1563744E-3,2.501391E-3,1.1074217E-2,-8.651732E-3,1.1137037E-2,3.755219E-3,-1.3291559E-2,8.378257E-3,1.0316358E-3,2.649359E-3,-2.6832314E-3,-2.168726E-3,1.0179348E-3],"categories":[],"categories_nodes":[],"categories_segments":[],"categories_sizes":[],"default_left":[0,0,0,0,0,0,0,0,0,0,0,0,0,0,0,0,0,0,0,0,0,0,0,0,0,0,0,0,0,0,0],"id":36,"left_children":[1,3,5,7,9,11,13,15,17,19,21,23,25,27,29,-1,-1,-1,-1,-1,-1,-1,-1,-1,-1,-1,-1,-1,-1,-1,-1],"loss_changes":[2.8811657E-1,3.1997287E-1,2.456057E-1,3.1837755E-1,2.4080512E-1,1.5244329E-1,2.1318887E-1,3.7313694E-1,1.4608045E-1,2.9110491E-2,2.4443921E-1,8.449894E-2,1.4882043E-1,1.650644E-1,1.6504213E-1,0E0,0E0,0E0,0E0,0E0,0E0,0E0,0E0,0E0,0E0,0E0,0E0,0E0,0E0,0E0,0E0],"parents":[2147483647,0,0,1,1,2,2,3,3,4,4,5,5,6,6,7,7,8,8,9,9,10,10,11,11,12,12,13,13,14,14],"right_children":[2,4,6,8,10,12,14,16,18,20,22,24,26,28,30,-1,-1,-1,-1,-1,-1,-1,-1,-1,-1,-1,-1,-1,-1,-1,-1],"split_conditions":[6.370117E-2,4.8121035E-2,-4.1904986E-2,3.4477685E-2,-1.4029279E-2,-7.0482674E-3,1.4393188E-2,-8.026069E-2,-3.301283E-2,1.4613961E-2,9.320128E-2,4.1217174E-2,-2.883907E-2,-7.252059E-2,3.1587403E-2,6.5060942E-3,1.4153952E-3,4.1104564E-3,-3.1563744E-3,2.501391E-3,1.1074217E-2,-8.651732E-3,1.1137037E-2,3.755219E-3,-1.3291559E-2,8.378257E-3,1.0316358E-3,2.649359E-3,-2.6832314E-3,-2.168726E-3,1.0179348E-3],"split_indices":[324,202,46,318,47,128,376,81,276,357,136,151,268,129,32,0,0,0,0,0,0,0,0,0,0,0,0,0,0,0,0],"split_type":[0,0,0,0,0,0,0,0,0,0,0,0,0,0,0,0,0,0,0,0,0,0,0,0,0,0,0,0,0,0,0],"sum_hessian":[3E3,1.289E3,1.711E3,1.197E3,9.2E1,1.21E2,1.59E3,9.92E2,2.05E2,1.7E1,7.5E1,1.1E1,1.1E2,8.3E2,7.6E2,1.74E2,8.18E2,3.2E1,1.73E2,1.1E1,6E0,6.9E1,6E0,4E0,7E0,5.3E1,5.7E1,6.2E1,7.68E2,2.34E2,5.26E2],"tree_param":{"num_deleted":"0","num_feature":"384","num_nodes":"31","size_leaf_vector":"1"}},{"base_weights":[6.514329E-5,1.15985E-2,-7.446166E-3,-4.667938E-2,1.6609062E-2,2.1122958E-4,-3.0184746E-2,-5.855627E-3,-7.19173E-2,9.566968E-2,1.3975448E-2,-5.6615304E-3,3.493993E-2,2.6249077E-2,-3.7009943E-2,-3.4262338E-3,5.6180214E-3,1.9746793E-3,-8.488584E-3,4.4984175E-3,2.1788502E-2,4.177916E-3,7.2365516E-4,-4.424264E-7,-3.1239137E-3,3.8499097E-4,6.5058754E-3,5.9662317E-3,-4.8482954E-3,4.25389E-3,-4.2743864E-3],"categories":[],"categories_nodes":[],"categories_segments":[],"categories_sizes":[],"default_left":[0,0,0,0,0,0,0,0,0,0,0,0,0,0,0,0,0,0,0,0,0,0,0,0,0,0,0,0,0,0,0],"id":37,"left_children":[1,3,5,7,9,11,13,15,17,19,21,23,25,27,29,-1,-1,-1,-1,-1,-1,-1,-1,-1,-1,-1,-1,-1,-1,-1,-1],"loss_changes":[2.6006487E-1,3.4650916E-1,3.1655347E-1,9.642771E-2,2.2582573E-1,2.7777827E-1,1.773803E-1,6.7127526E-2,7.0623696E-2,2.0700774E-1,1.9774383E-1,1.685698E-1,1.842193E-1,1.2774456E-1,1.8837416E-1,0E0,0E0,0E0,0E0,0E0,0E0,0E0,0E0,0E0,0E0,0E0,0E0,0E0,0E0,0E0,0E0],"parents":[2147483647,0,0,1,1,2,2,3,3,4,4,5,5,6,6,7,7,8,8,9,9,10,10,11,11,12,12,13,13,14,14],"right_children":[2,4,6,8,10,12,14,16,18,20,22,24,26,28,30,-1,-1,-1,-1,-1,-1,-1,-1,-1,-1,-1,-1,-1,-1,-1,-1],"split_conditions":[-5.748415E-3,-1.0948909E-1,3.5846908E-2,2.8800357E-2,-8.4417075E-2,4.9721137E-2,-1.0259705E-1,5.6061618E-2,-3.957782E-2,-1.1897643E-2,-3.708645E-2,3.1303048E-2,2.3049947E-2,2.70311E-2,-5.1851194E-2,-3.4262338E-3,5.6180214E-3,1.9746793E-3,-8.488584E-3,4.4984175E-3,2.1788502E-2,4.177916E-3,7.2365516E-4,-4.424264E-7,-3.1239137E-3,3.8499097E-4,6.5058754E-3,5.9662317E-3,-4.8482954E-3,4.25389E-3,-4.2743864E-3],"split_indices":[50,118,213,160,231,119,24,213,7,378,219,48,376,48,129,0,0,0,0,0,0,0,0,0,0,0,0,0,0,0,0],"split_type":[0,0,0,0,0,0,0,0,0,0,0,0,0,0,0,0,0,0,0,0,0,0,0,0,0,0,0,0,0,0,0],"sum_hessian":[3E3,1.183E3,1.817E3,9.3E1,1.09E3,1.36E3,4.57E2,3.6E1,5.7E1,3.4E1,1.056E3,1.164E3,1.96E2,4.9E1,4.08E2,2.5E1,1.1E1,7E0,5E1,2.5E1,9E0,2.05E2,8.51E2,9.54E2,2.1E2,9.7E1,9.9E1,3.4E1,1.5E1,2.7E1,3.81E2],"tree_param":{"num_deleted":"0","num_feature":"384","num_nodes":"31","size_leaf_vector":"1"}},{"base_weights":[6.91971E-5,2.5647464E-3,-3.0731734E-2,-1.0933148E-2,9.181973E-3,-4.139069E-2,3.7307885E-2,-2.0432673E-2,8.101752E-3,1.7118966E-2,-8.685343E-3,3.0702293E-2,-5.3159814E-2,1.0164818E-2,1.14073595E-2,-2.3104467E-3,7.4124783E-3,7.5924583E-3,9.7191834E-5,2.8090526E-3,-1.4769216E-4,5.5519515E-3,-1.2704345E-3,5.8191917E-3,-6.00797E-3,-5.9753577E-3,6.9969255E-3,-3.598363E-3,5.93119E-3],"categories":[],"categories_nodes":[],"categories_segments":[],"categories_sizes":[],"default_left":[0,0,0,0,0,0,0,0,0,0,0,0,0,0,0,0,0,0,0,0,0,0,0,0,0,0,0,0,0],"id":38,"left_children":[1,3,5,7,9,11,13,15,17,19,21,23,25,27,-1,-1,-1,-1,-1,-1,-1,-1,-1,-1,-1,-1,-1,-1,-1],"loss_changes":[2.3075143E-1,2.4813822E-1,1.6472124E-1,1.6543734E-1,2.6448768E-1,1.6708401E-1,6.343382E-2,1.5582168E-1,1.474137E-1,2.6343888E-1,1.4881997E-1,7.33719E-2,1.4057735E-1,5.656774E-2,0E0,0E0,0E0,0E0,0E0,0E0,0E0,0E0,0E0,0E0,0E0,0E0,0E0,0E0,0E0],"parents":[2147483647,0,0,1,1,2,2,3,3,4,4,5,5,6,6,7,7,8,8,9,9,10,10,11,11,12,12,13,13],"right_children":[2,4,6,8,10,12,14,16,18,20,22,24,26,28,-1,-1,-1,-1,-1,-1,-1,-1,-1,-1,-1,-1,-1,-1,-1],"split_conditions":[6.285077E-2,-9.304926E-3,1.6166171E-2,4.448378E-2,9.01974E-2,-2.771291E-2,3.8713053E-2,1.1769876E-1,-4.2575512E-2,1.7458161E-2,-4.1396014E-2,4.3644097E-2,1.3519307E-2,-5.4651454E-2,1.14073595E-2,-2.3104467E-3,7.4124783E-3,7.5924583E-3,9.7191834E-5,2.8090526E-3,-1.4769216E-4,5.5519515E-3,-1.2704345E-3,5.8191917E-3,-6.00797E-3,-5.9753577E-3,6.9969255E-3,-3.598363E-3,5.93119E-3],"split_indices":[46,119,204,325,324,119,273,259,219,102,46,170,335,67,0,0,0,0,0,0,0,0,0,0,0,0,0,0,0],"split_type":[0,0,0,0,0,0,0,0,0,0,0,0,0,0,0,0,0,0,0,0,0,0,0,0,0,0,0,0,0],"sum_hessian":[3E3,2.776E3,2.24E2,9.13E2,1.863E3,1.94E2,3E1,6.09E2,3.04E2,1.29E3,5.73E2,2.7E1,1.67E2,2.3E1,7E0,5.93E2,1.6E1,2.8E1,2.76E2,8.11E2,4.79E2,3.3E1,5.4E2,2.1E1,6E0,1.59E2,8E0,1.2E1,1.1E1],"tree_param":{"num_deleted":"0","num_feature":"384","num_nodes":"29","size_leaf_vector":"1"}},{"base_weights":[7.371032E-5,-1.3239017E-2,5.4798275E-3,-2.456723E-2,5.9161386E-3,-4.2566597E-2,8.1107775E-3,-6.563718E-2,-1.49627775E-2,6.721199E-4,1.0649374E-1,-1.4371227E-1,-3.3315357E-2,4.953805E-3,4.512937E-2,-8.024905E-3,2.5435707E-3,3.3157137E-3,-2.5821535E-3,3.4807473E-3,-1.186729E-3,1.34637E-2,-6.0339333E-3,-1.6559249E-2,-7.4963877E-3,3.2856918E-3,-4.49681E-3,1.4872715E-3,-7.979908E-4,-8.529373E-4,6.573384E-3],"categories":[],"categories_nodes":[],"categories_segments":[],"categories_sizes":[],"default_left":[0,0,0,0,0,0,0,0,0,0,0,0,0,0,0,0,0,0,0,0,0,0,0,0,0,0,0,0,0,0,0],"id":39,"left_children":[1,3,5,7,9,11,13,15,17,19,21,23,25,27,29,-1,-1,-1,-1,-1,-1,-1,-1,-1,-1,-1,-1,-1,-1,-1,-1],"loss_changes":[2.16055E-1,1.8827884E-1,2.7022576E-1,2.1399552E-1,1.702886E-1,9.907743E-2,2.3643143E-1,1.3910791E-1,2.3233362E-1,1.3224852E-1,8.324748E-2,1.1246055E-3,8.08996E-2,2.3963298E-1,1.7635265E-1,0E0,0E0,0E0,0E0,0E0,0E0,0E0,0E0,0E0,0E0,0E0,0E0,0E0,0E0,0E0,0E0],"parents":[2147483647,0,0,1,1,2,2,3,3,4,4,5,5,6,6,7,7,8,8,9,9,10,10,11,11,12,12,13,13,14,14],"right_children":[2,4,6,8,10,12,14,16,18,20,22,24,26,28,30,-1,-1,-1,-1,-1,-1,-1,-1,-1,-1,-1,-1,-1,-1,-1,-1],"split_conditions":[-3.9970916E-2,2.4404204E-2,-9.041324E-2,-1.7747138E-2,5.4217473E-2,-3.3422977E-2,8.835688E-2,4.705304E-2,-5.4644436E-2,-6.486814E-2,2.4237514E-2,-9.045836E-3,-6.711563E-2,1.44998245E-2,-6.027705E-2,-8.024905E-3,2.5435707E-3,3.3157137E-3,-2.5821535E-3,3.4807473E-3,-1.186729E-3,1.34637E-2,-6.0339333E-3,-1.6559249E-2,-7.4963877E-3,3.2856918E-3,-4.49681E-3,1.4872715E-3,-7.979908E-4,-8.529373E-4,6.573384E-3],"split_indices":[66,173,270,9,77,177,288,239,73,215,75,6,211,148,316,0,0,0,0,0,0,0,0,0,0,0,0,0,0,0,0],"split_type":[0,0,0,0,0,0,0,0,0,0,0,0,0,0,0,0,0,0,0,0,0,0,0,0,0,0,0,0,0,0,0],"sum_hessian":[3E3,8.66E2,2.134E3,5.44E2,3.22E2,1.1E2,2.024E3,1.02E2,4.42E2,3.07E2,1.5E1,8E0,1.02E2,1.866E3,1.58E2,8.8E1,1.4E1,8.1E1,3.61E2,8.2E1,2.25E2,1.3E1,2E0,5E0,3E0,1.5E1,8.7E1,1.056E3,8.1E2,4.4E1,1.14E2],"tree_param":{"num_deleted":"0","num_feature":"384","num_nodes":"31","size_leaf_vector":"1"}},{"base_weights":[6.1715735E-5,2.9629506E-3,-2.3349946E-2,7.000322E-3,-1.8570341E-2,-2.9667826E-2,6.673611E-2,2.2910584E-2,1.1349003E-3,-6.220488E-2,-4.6473085E-3,-2.3401529E-2,-1.03366144E-1,8.7587E-3,9.5431935E-3,3.1710744E-3,-1.9872019E-3,3.1576976E-3,-3.2691934E-4,-1.38473185E-2,-4.072207E-3,-3.415466E-3,1.3375415E-3,-3.137587E-3,3.6859778E-3,-1.6369998E-2,-6.889338E-3,-4.0070624E-3,2.44906E-3],"categories":[],"categories_nodes":[],"categories_segments":[],"categories_sizes":[],"default_left":[0,0,0,0,0,0,0,0,0,0,0,0,0,0,0,0,0,0,0,0,0,0,0,0,0,0,0,0,0],"id":40,"left_children":[1,3,5,7,9,11,13,15,17,19,21,23,25,-1,27,-1,-1,-1,-1,-1,-1,-1,-1,-1,-1,-1,-1,-1,-1],"loss_changes":[2.039053E-1,2.3234111E-1,1.9036955E-1,2.0994489E-1,2.5608653E-1,1.4074388E-1,2.5399655E-2,2.287854E-1,2.2064798E-1,1.6148376E-1,1.7116556E-1,1.3907272E-1,3.8639158E-2,0E0,6.172539E-3,0E0,0E0,0E0,0E0,0E0,0E0,0E0,0E0,0E0,0E0,0E0,0E0,0E0,0E0],"parents":[2147483647,0,0,1,1,2,2,3,3,4,4,5,5,6,6,7,7,8,8,9,9,10,10,11,11,12,12,14,14],"right_children":[2,4,6,8,10,12,14,16,18,20,22,24,26,-1,28,-1,-1,-1,-1,-1,-1,-1,-1,-1,-1,-1,-1,-1,-1],"split_conditions":[1.20449804E-1,-2.1998465E-2,1.5583349E-2,3.3432405E-2,1.3839707E-2,4.2948164E-2,-2.2473512E-2,8.5506864E-2,-5.4762427E-2,-2.5376441E-2,1.744729E-3,8.644296E-4,-6.438333E-2,8.7587E-3,-8.495745E-2,3.1710744E-3,-1.9872019E-3,3.1576976E-3,-3.2691934E-4,-1.38473185E-2,-4.072207E-3,-3.415466E-3,1.3375415E-3,-3.137587E-3,3.6859778E-3,-1.6369998E-2,-6.889338E-3,-4.0070624E-3,2.44906E-3],"split_indices":[189,24,79,151,272,314,90,101,198,29,325,18,230,0,0,0,0,0,0,0,0,0,0,0,0,0,0,0,0],"split_type":[0,0,0,0,0,0,0,0,0,0,0,0,0,0,0,0,0,0,0,0,0,0,0,0,0,0,0,0,0],"sum_hessian":[3E3,2.67E3,3.3E2,2.249E3,4.21E2,3.09E2,2.1E1,6.05E2,1.644E3,1.01E2,3.2E2,2.86E2,2.3E1,1.5E1,6E0,5.02E2,1.03E2,2.07E2,1.437E3,2.1E1,8E1,1.21E2,1.99E2,2.53E2,3.3E1,7E0,1.6E1,1E0,5E0],"tree_param":{"num_deleted":"0","num_feature":"384","num_nodes":"29","size_leaf_vector":"1"}},{"base_weights":[4.5055258E-5,-1.8647277E-3,3.267216E-2,-4.4851378E-3,2.4675522E-2,1.19180575E-1,2.3289334E-2,-1.539681E-2,3.8977377E-3,5.2873336E-2,-1.0112016E-2,1.5105131E-2,1.8854702E-3,-5.5837605E-2,3.1782873E-2,-2.604741E-4,-2.7346287E-3,1.3903761E-4,6.242146E-3,6.8733166E-3,-3.1482882E-3,3.7979211E-3,-3.162667E-3,-7.725354E-3,2.2369586E-3,-2.1129097E-4,5.319465E-3],"categories":[],"categories_nodes":[],"categories_segments":[],"categories_sizes":[],"default_left":[0,0,0,0,0,0,0,0,0,0,0,0,0,0,0,0,0,0,0,0,0,0,0,0,0,0,0],"id":41,"left_children":[1,3,5,7,9,11,13,15,17,19,21,-1,-1,23,25,-1,-1,-1,-1,-1,-1,-1,-1,-1,-1,-1,-1],"loss_changes":[1.870553E-1,1.9734411E-1,1.3196547E-1,2.362386E-1,2.506724E-1,4.8311308E-2,1.0325691E-1,1.7143604E-1,2.1430053E-1,1.908043E-1,1.2018775E-1,0E0,0E0,2.6851315E-2,9.954274E-2,0E0,0E0,0E0,0E0,0E0,0E0,0E0,0E0,0E0,0E0,0E0,0E0],"parents":[2147483647,0,0,1,1,2,2,3,3,4,4,5,5,6,6,7,7,8,8,9,9,10,10,13,13,14,14],"right_children":[2,4,6,8,10,12,14,16,18,20,22,-1,-1,24,26,-1,-1,-1,-1,-1,-1,-1,-1,-1,-1,-1,-1],"split_conditions":[2.5125029E-2,3.6468774E-2,-8.902936E-2,1.2356351E-2,-7.542674E-2,9.831748E-2,-5.189579E-2,2.9997585E-2,1.04534276E-1,5.0776992E-2,5.1100943E-2,1.5105131E-2,1.8854702E-3,1.1959509E-1,-1.1414058E-2,-2.604741E-4,-2.7346287E-3,1.3903761E-4,6.242146E-3,6.8733166E-3,-3.1482882E-3,3.7979211E-3,-3.162667E-3,-7.725354E-3,2.2369586E-3,-2.1129097E-4,5.319465E-3],"split_indices":[39,86,216,376,361,25,13,275,288,13,162,0,0,68,347,0,0,0,0,0,0,0,0,0,0,0,0],"split_type":[0,0,0,0,0,0,0,0,0,0,0,0,0,0,0,0,0,0,0,0,0,0,0,0,0,0,0],"sum_hessian":[3E3,2.835E3,1.65E2,2.581E3,2.54E2,1.5E1,1.5E2,1.121E3,1.46E3,1.4E2,1.14E2,1.1E1,4E0,1.4E1,1.36E2,5.42E2,5.79E2,1.401E3,5.9E1,1.18E2,2.2E1,3.5E1,7.9E1,1.1E1,3E0,5.3E1,8.3E1],"tree_param":{"num_deleted":"0","num_feature":"384","num_nodes":"27","size_leaf_vector":"1"}},{"base_weights":[4.8659585E-5,-2.0406993E-2,2.9864623E-3,2.8961262E-2,-2.9657584E-2,5.336357E-3,-2.8035589E-2,-2.1968049E-3,9.631271E-2,-5.284013E-3,-4.954408E-2,-5.540429E-3,1.3160821E-2,-5.3878363E-2,1.6939577E-3,-8.824696E-3,2.7451585E-3,-2.5045872E-4,1.5416485E-2,-1.6700227E-3,6.6331523E-3,-6.2210592E-3,4.8144013E-4,3.8223737E-3,-1.1737425E-3,2.637249E-4,2.8046833E-3,-2.7051808E-3,-9.623016E-3,-7.978473E-3,1.5794345E-3],"categories":[],"categories_nodes":[],"categories_segments":[],"categories_sizes":[],"default_left":[0,0,0,0,0,0,0,0,0,0,0,0,0,0,0,0,0,0,0,0,0,0,0,0,0,0,0,0,0,0,0],"id":42,"left_children":[1,3,5,7,9,11,13,15,17,19,21,23,25,27,29,-1,-1,-1,-1,-1,-1,-1,-1,-1,-1,-1,-1,-1,-1,-1,-1],"loss_changes":[1.8040505E-1,1.7302938E-1,1.915083E-1,1.2612402E-1,1.5387437E-1,2.0781429E-1,1.4222567E-1,1.09574944E-1,1.0900517E-1,1.1883902E-1,1.2079266E-1,2.7762154E-1,2.2237468E-1,1.0987595E-1,1.0121279E-1,0E0,0E0,0E0,0E0,0E0,0E0,0E0,0E0,0E0,0E0,0E0,0E0,0E0,0E0,0E0,0E0],"parents":[2147483647,0,0,1,1,2,2,3,3,4,4,5,5,6,6,7,7,8,8,9,9,10,10,11,11,12,12,13,13,14,14],"right_children":[2,4,6,8,10,12,14,16,18,20,22,24,26,28,30,-1,-1,-1,-1,-1,-1,-1,-1,-1,-1,-1,-1,-1,-1,-1,-1],"split_conditions":[1.9377548E-3,-5.6913808E-2,1.1172968E-1,5.855681E-2,4.5709416E-2,4.4232767E-2,6.3679944E-4,-6.944288E-2,-4.438404E-4,7.716727E-2,9.643492E-3,-5.280908E-2,-1.4580071E-2,-7.526913E-2,-4.537295E-2,-8.824696E-3,2.7451585E-3,-2.5045872E-4,1.5416485E-2,-1.6700227E-3,6.6331523E-3,-6.2210592E-3,4.8144013E-4,3.8223737E-3,-1.1737425E-3,2.637249E-4,2.8046833E-3,-2.7051808E-3,-9.623016E-3,-7.978473E-3,1.5794345E-3],"split_indices":[307,103,101,356,58,5,299,263,323,104,21,11,340,252,284,0,0,0,0,0,0,0,0,0,0,0,0,0,0,0,0],"split_type":[0,0,0,0,0,0,0,0,0,0,0,0,0,0,0,0,0,0,0,0,0,0,0,0,0,0,0,0,0,0,0],"sum_hessian":[3E3,3.76E2,2.624E3,5.9E1,3.17E2,2.44E3,1.84E2,4.1E1,1.8E1,1.43E2,1.74E2,1.021E3,1.419E3,9.8E1,8.6E1,1E1,3.1E1,7E0,1.1E1,1.24E2,1.9E1,1.41E2,3.3E1,1.26E2,8.95E2,8.32E2,5.87E2,6.1E1,3.7E1,1.2E1,7.4E1],"tree_param":{"num_deleted":"0","num_feature":"384","num_nodes":"31","size_leaf_vector":"1"}},{"base_weights":[4.2218162E-5,-1.6807393E-3,3.4489024E-2,-4.3794937E-3,2.4863377E-2,6.133024E-2,-4.4065E-2,-1.0588321E-2,7.392397E-3,-5.300106E-2,3.621631E-2,4.6687733E-2,1.416915E-1,-9.7738944E-2,1.1928153E-2,-2.3250596E-3,-2.5103483E-4,-6.1540393E-4,2.1165754E-3,1.27673475E-2,-7.460419E-3,1.3661794E-3,6.3151615E-3,-1.431166E-3,6.722828E-3,1.8765181E-2,8.509441E-3,1.8099673E-3,-1.2058991E-2,-4.532097E-3,6.798446E-3],"categories":[],"categories_nodes":[],"categories_segments":[],"categories_sizes":[],"default_left":[0,0,0,0,0,0,0,0,0,0,0,0,0,0,0,0,0,0,0,0,0,0,0,0,0,0,0,0,0,0,0],"id":43,"left_children":[1,3,5,7,9,11,13,15,17,19,21,23,25,27,29,-1,-1,-1,-1,-1,-1,-1,-1,-1,-1,-1,-1,-1,-1,-1,-1],"loss_changes":[1.7816846E-1,2.0491634E-1,3.042159E-1,1.8981898E-1,2.3529278E-1,1.1929062E-1,1.12364665E-1,1.73827E-1,1.6749242E-1,1.4223158E-1,1.394727E-1,1.16234556E-1,2.5651366E-2,5.2476108E-2,6.4055435E-2,0E0,0E0,0E0,0E0,0E0,0E0,0E0,0E0,0E0,0E0,0E0,0E0,0E0,0E0,0E0,0E0],"parents":[2147483647,0,0,1,1,2,2,3,3,4,4,5,5,6,6,7,7,8,8,9,9,10,10,11,11,12,12,13,13,14,14],"right_children":[2,4,6,8,10,12,14,16,18,20,22,24,26,28,30,-1,-1,-1,-1,-1,-1,-1,-1,-1,-1,-1,-1,-1,-1,-1,-1],"split_conditions":[7.273105E-2,7.412946E-3,-3.293375E-2,-3.5577476E-2,-4.2697124E-2,8.7862626E-2,1.0741605E-2,3.2654993E-2,-1.5277854E-2,-3.4703784E-2,2.0272769E-2,-1.2269756E-1,-1.3867476E-2,-4.7813285E-2,3.9942E-2,-2.3250596E-3,-2.5103483E-4,-6.1540393E-4,2.1165754E-3,1.27673475E-2,-7.460419E-3,1.3661794E-3,6.3151615E-3,-1.431166E-3,6.722828E-3,1.8765181E-2,8.509441E-3,1.8099673E-3,-1.2058991E-2,-4.532097E-3,6.798446E-3],"split_indices":[9,263,122,54,339,304,80,32,203,86,155,174,74,20,109,0,0,0,0,0,0,0,0,0,0,0,0,0,0,0,0],"split_type":[0,0,0,0,0,0,0,0,0,0,0,0,0,0,0,0,0,0,0,0,0,0,0,0,0,0,0,0,0,0,0],"sum_hessian":[3E3,2.858E3,1.42E2,2.595E3,2.63E2,1.06E2,3.6E1,1.699E3,8.96E2,3.3E1,2.3E2,9.1E1,1.5E1,1.8E1,1.8E1,6.61E2,1.038E3,4.52E2,4.44E2,3E0,3E1,1.26E2,1.04E2,2.3E1,6.8E1,7E0,8E0,3E0,1.5E1,9E0,9E0],"tree_param":{"num_deleted":"0","num_feature":"384","num_nodes":"31","size_leaf_vector":"1"}},{"base_weights":[5.016317E-5,-1.4905609E-2,3.685355E-3,-7.883008E-4,-4.4399202E-2,-2.2253703E-2,7.417262E-3,6.1498247E-3,-4.416879E-2,-5.0825596E-2,1.0815444E-1,-2.9170368E-2,4.4341236E-2,9.890097E-3,-2.4762338E-2,-5.922933E-3,1.1459255E-3,-1.0596603E-2,-1.3734075E-3,-9.853491E-3,-3.264432E-3,1.51210325E-2,-1.4008803E-3,-3.3377807E-3,6.61748E-3,1.91921E-3,8.374963E-3,-1.6494226E-4,1.8194739E-3,-6.084428E-3,-3.0342793E-5],"categories":[],"categories_nodes":[],"categories_segments":[],"categories_sizes":[],"default_left":[0,0,0,0,0,0,0,0,0,0,0,0,0,0,0,0,0,0,0,0,0,0,0,0,0,0,0,0,0,0,0],"id":44,"left_children":[1,3,5,7,9,11,13,15,17,19,21,23,25,27,29,-1,-1,-1,-1,-1,-1,-1,-1,-1,-1,-1,-1,-1,-1,-1,-1],"loss_changes":[1.6321059E-1,2.443743E-1,2.3394227E-1,1.2006139E-1,1.9176728E-1,1.4132036E-1,1.6830698E-1,1.2009009E-1,1.0198764E-1,1.5552053E-1,4.4197045E-2,1.129287E-1,2.7134199E-2,1.8805157E-1,1.332428E-1,0E0,0E0,0E0,0E0,0E0,0E0,0E0,0E0,0E0,0E0,0E0,0E0,0E0,0E0,0E0,0E0],"parents":[2147483647,0,0,1,1,2,2,3,3,4,4,5,5,6,6,7,7,8,8,9,9,10,10,11,11,12,12,13,13,14,14],"right_children":[2,4,6,8,10,12,14,16,18,20,22,24,26,28,30,-1,-1,-1,-1,-1,-1,-1,-1,-1,-1,-1,-1,-1,-1,-1,-1],"split_conditions":[-4.6079706E-2,5.2272994E-2,-3.861789E-2,9.193153E-3,3.7516598E-2,9.617278E-2,6.285077E-2,-4.4608764E-2,-1.5144599E-2,-2.3353316E-2,9.810326E-3,-2.7160015E-2,-8.508994E-3,1.1116571E-3,-9.554902E-3,-5.922933E-3,1.1459255E-3,-1.0596603E-2,-1.3734075E-3,-9.853491E-3,-3.264432E-3,1.51210325E-2,-1.4008803E-3,-3.3377807E-3,6.61748E-3,1.91921E-3,8.374963E-3,-1.6494226E-4,1.8194739E-3,-6.084428E-3,-3.0342793E-5],"split_indices":[262,61,27,90,76,173,46,377,21,253,20,286,357,119,246,0,0,0,0,0,0,0,0,0,0,0,0,0,0,0,0],"split_type":[0,0,0,0,0,0,0,0,0,0,0,0,0,0,0,0,0,0,0,0,0,0,0,0,0,0,0,0,0,0,0],"sum_hessian":[3E3,5.86E2,2.414E3,3.97E2,1.89E2,3.03E2,2.111E3,3.43E2,5.4E1,1.82E2,7E0,2.75E2,2.8E1,1.961E3,1.5E2,2.5E1,3.18E2,1.7E1,3.7E1,4.9E1,1.33E2,5E0,2E0,2.64E2,1.1E1,1.8E1,1E1,8.21E2,1.14E3,6E1,9E1],"tree_param":{"num_deleted":"0","num_feature":"384","num_nodes":"31","size_leaf_vector":"1"}},{"base_weights":[4.2798805E-5,-6.650327E-3,7.7427393E-3,-6.308354E-2,-4.6461537E-3,1.0869659E-2,-4.670993E-2,6.822693E-2,-7.472018E-2,3.7210332E-3,-1.7229926E-2,3.802609E-3,3.242767E-2,-1.381916E-2,-8.4844284E-2,2.3050786E-3,1.2446577E-2,-3.847163E-3,-1.2075366E-2,8.408596E-4,-4.1385773E-3,-9.0048136E-4,-5.2145193E-3,1.0690298E-4,6.744893E-3,2.4568217E-4,5.0575244E-3,1.2231971E-3,-8.834798E-3,-1.3550869E-2,-5.2519E-3],"categories":[],"categories_nodes":[],"categories_segments":[],"categories_sizes":[],"default_left":[0,0,0,0,0,0,0,0,0,0,0,0,0,0,0,0,0,0,0,0,0,0,0,0,0,0,0,0,0,0,0],"id":45,"left_children":[1,3,5,7,9,11,13,15,17,19,21,23,25,27,29,-1,-1,-1,-1,-1,-1,-1,-1,-1,-1,-1,-1,-1,-1,-1,-1],"loss_changes":[1.5471305E-1,1.8134862E-1,2.3820335E-1,8.913866E-2,1.634754E-1,2.0113307E-1,9.4151884E-2,9.8342355E-3,8.045539E-2,1.9762239E-1,1.775833E-1,1.7321423E-1,1.7718655E-1,8.2626194E-2,5.0204158E-2,0E0,0E0,0E0,0E0,0E0,0E0,0E0,0E0,0E0,0E0,0E0,0E0,0E0,0E0,0E0,0E0],"parents":[2147483647,0,0,1,1,2,2,3,3,4,4,5,5,6,6,7,7,8,8,9,9,10,10,11,11,12,12,13,13,14,14],"right_children":[2,4,6,8,10,12,14,16,18,20,22,24,26,28,30,-1,-1,-1,-1,-1,-1,-1,-1,-1,-1,-1,-1,-1,-1,-1,-1],"split_conditions":[-3.1895242E-3,-1.7892856E-2,9.8508395E-2,-6.374252E-2,-1.1075683E-2,3.4303896E-2,7.607668E-2,4.1348442E-2,6.851037E-3,1.02721125E-1,4.978067E-2,2.5073253E-2,8.984575E-4,8.938963E-2,-6.1408993E-2,2.3050786E-3,1.2446577E-2,-3.847163E-3,-1.2075366E-2,8.408596E-4,-4.1385773E-3,-9.0048136E-4,-5.2145193E-3,1.0690298E-4,6.744893E-3,2.4568217E-4,5.0575244E-3,1.2231971E-3,-8.834798E-3,-1.3550869E-2,-5.2519E-3],"split_indices":[347,288,280,7,273,329,156,0,256,101,368,278,383,4,308,0,0,0,0,0,0,0,0,0,0,0,0,0,0,0,0],"split_type":[0,0,0,0,0,0,0,0,0,0,0,0,0,0,0,0,0,0,0,0,0,0,0,0,0,0,0,0,0,0,0],"sum_hessian":[3E3,1.605E3,1.395E3,5.4E1,1.551E3,1.32E3,7.5E1,4E0,5E1,9.32E2,6.19E2,9.95E2,3.25E2,4.1E1,3.4E1,3E0,1E0,2.9E1,2.1E1,8.45E2,8.7E1,5.02E2,1.17E2,9.55E2,4E1,1.23E2,2.02E2,3.1E1,1E1,1.2E1,2.2E1],"tree_param":{"num_deleted":"0","num_feature":"384","num_nodes":"31","size_leaf_vector":"1"}},{"base_weights":[3.0240337E-5,-1.7812142E-2,2.7731007E-3,7.401513E-2,-2.2585722E-2,7.776655E-4,3.585432E-2,-2.8645704E-3,1.014707E-1,3.0279967E-3,-3.8335793E-2,-2.6230072E-3,1.9826654E-2,5.262196E-2,-2.4700537E-3,-6.6359044E-4,1.173885E-2,-7.3780753E-3,1.5805423E-3,1.591461E-3,-5.0851065E-3,1.6123651E-3,-6.93485E-4,9.48273E-3,1.4149873E-3,7.7932714E-3,9.088086E-4,-1.6681338E-3,7.909014E-3],"categories":[],"categories_nodes":[],"categories_segments":[],"categories_sizes":[],"default_left":[0,0,0,0,0,0,0,0,0,0,0,0,0,0,0,0,0,0,0,0,0,0,0,0,0,0,0,0,0],"id":46,"left_children":[1,3,5,7,9,11,13,-1,15,17,19,21,23,25,27,-1,-1,-1,-1,-1,-1,-1,-1,-1,-1,-1,-1,-1,-1],"loss_changes":[1.4691582E-1,1.7700958E-1,1.7173386E-1,5.9278943E-2,1.538183E-1,1.5908538E-1,9.523615E-2,0E0,2.8312057E-2,1.4445318E-1,1.6104347E-1,1.6856705E-1,1.5704179E-1,1.1278489E-1,5.4636784E-2,0E0,0E0,0E0,0E0,0E0,0E0,0E0,0E0,0E0,0E0,0E0,0E0,0E0,0E0],"parents":[2147483647,0,0,1,1,2,2,3,3,4,4,5,5,6,6,8,8,9,9,10,10,11,11,12,12,13,13,14,14],"right_children":[2,4,6,8,10,12,14,-1,16,18,20,22,24,26,28,-1,-1,-1,-1,-1,-1,-1,-1,-1,-1,-1,-1,-1,-1],"split_conditions":[-4.2929888E-2,-8.484793E-2,2.5125029E-2,-5.9682462E-2,7.0112087E-3,1.4411665E-2,5.2477553E-2,-2.8645704E-3,-6.2504515E-2,-3.242857E-2,-4.1037127E-2,-5.0333973E-2,-7.46855E-2,8.4289685E-3,5.4967232E-2,-6.6359044E-4,1.173885E-2,-7.3780753E-3,1.5805423E-3,1.591461E-3,-5.0851065E-3,1.6123651E-3,-6.93485E-4,9.48273E-3,1.4149873E-3,7.7932714E-3,9.088086E-4,-1.6681338E-3,7.909014E-3],"split_indices":[309,281,39,208,64,245,246,0,8,294,170,273,190,28,267,0,0,0,0,0,0,0,0,0,0,0,0,0,0],"split_type":[0,0,0,0,0,0,0,0,0,0,0,0,0,0,0,0,0,0,0,0,0,0,0,0,0,0,0,0,0],"sum_hessian":[3E3,3.99E2,2.601E3,1.9E1,3.8E2,2.454E3,1.47E2,4E0,1.5E1,1.45E2,2.35E2,2.083E3,3.71E2,1.02E2,4.5E1,2E0,1.3E1,2E1,1.25E2,4.4E1,1.91E2,3.89E2,1.694E3,2.5E1,3.46E2,6.4E1,3.8E1,3.9E1,6E0],"tree_param":{"num_deleted":"0","num_feature":"384","num_nodes":"29","size_leaf_vector":"1"}},{"base_weights":[3.5774126E-5,-1.2984654E-3,3.5788123E-2,2.8682802E-2,-2.9824555E-3,-2.2660587E-2,6.294916E-2,6.9080666E-2,4.2316793E-3,-1.1198934E-2,3.263561E-3,1.0385953E-1,-5.7999887E-2,8.5367054E-2,-1.7238315E-2,-3.3754957E-4,9.221162E-3,4.659097E-3,-2.8962528E-3,-3.1025296E-3,-3.819929E-4,2.4598448E-3,-2.9610816E-4,1.1751979E-2,4.1188896E-4,2.3710823E-3,-8.636587E-3,